tree
version=v3
num_class=1
num_tree_per_iteration=1
label_index=0
max_feature_idx=8
objective=binary sigmoid:1
feature_names=BRIGHTNESS SCAN TRACK ACQ_TIME SATELLITE DAYNIGHT CONFIDENCE BRIGHT_T31 FRP
feature_infos=[300:500] [1:4.7999999999999998] [1:2] [1:2359] [0:0] [0:1] [0:0] [264.89999999999998:374.30000000000001] [0:3476.0999999999999]
tree_sizes=764 732 734 758 743 761 735 745 749 763 781 744 731 756 756 772 767 781 749 741 759 765 742 762 775 761 768 765 762 764 739 766 784 748 748 745 770 751 768 761 759 773 751 753 751 771 752 760 780 745 746 754 750 765 743 745 740 757 755 754 769 786 757 765 767 748 776 770 762 773 768 751 755 767 769 778 770 762 781 746 768 759 738 757 767 743 754 739 763 764 780 784 778 772 753 773 758 772 773 781 750 786 761 779 781 780 773 771 778 774 780 771 779 779 766 780 758 770 771 779 778 778 781 779 778 775 773 781 778 773 772 782 779 780 776 777 757 752 767 777 775 779 777 774 778 767 776 781 775 764 762 780 777 782 774 772 775 754 778 767 781 769 774 769 779 763 776 770 768 776 779 785 770 779 773 770 771 780 778 777 770 756 786 775 774 772 780 782 749 774 782 777 776 772 773 778 763 777 781 769 779 781 766 755 778 772 772 776 773 780 762 770 785 782 778 776 772 772 771 782 781 777 773 774 778 779 772 790 785 773 763 771 764 781 759 783 769 780 761 776 772 778 778 781 766 780 778 784 763 775 755 765 771 764 771 776 764 773 762 764 765 780 779 769 786 772 769 772 775 783 778 781 762 779 773 782 774 776 777 767 756 761 785 776 784 763 779 776 768 772 781 761 763 783 763 776 763 770 781 779 775 781 771 774 764 762 779 780 767 785 774 763 777 772 762 783 779 780 775 772 782 781 778 762 785 760 772 763 775 777 785 778 778 776 775 766 782 783 784 764 771 776 758 779 752 767 777 770 778 775 779 770 772 768 756 758 770 775 771 770 770 782 788 773 767 775 782 764 772 770 773 764 777 782 780 766 770 775 775 769 767 777 771 771 784 778 776 776 778 778 764 771 763 774 776 761 776 783 774 779 772 775 771 768 766 775 766 773 766 775 774 776 782 779 759 770 775 772 775 778 766 767 781 775 774 775 779 776 786 766 775 768 759 776 760 754 778 764 781 782 769 784 771 763 760 778 780 765 770 778 773 771 785 774 775 766 778 776 766 768 784 780 771 772 779 783 780 771 778 775 770 766 770 778 775 771 772 765 779 755 770 775 779 781 758 765 783 785 765 759 779 771 767 786 771 779 769 772 772 764 776 783 779 773 778 781 776 766 766 773 760 778 763 766 773 786 780 770 762 770 777 762 775 772 789 769 776 769 776 763 781 760 768 778 777 765 770 766 777 774 780 770 782 778 781 776 767 768 764 768 774 768 784 767 766 764 778 760 773 785 768 778 771 767 769 780 761 777 773 757 768 768 780 768 767 756 769 762 768 764 761 774 784 766 781 769 775 767 766 773 764 776 770 768 775 762 779 768 760 770 774 775 778 778 787 772 777 784 766 765 763 777 784 764 780 765 772 772 778 763 771 769 775 766 776 775 781 770 770 777 785 778 771 767 782 778 766 768 785 768 774 768 771 765 770 764 775 766 769 787 777 767 767 764 772 772 773 779 785 768 766 763 771 776 768 776 774 762 772 763 777 760 778 768 775 782 776 767 768 777 770 764 784 775 777 778 774 777 784 768 767 762 777 778 776 768 770 780 778 769 775 786 769 782 775 778 762 783 780 770 765 767 771 772 777 763 775 760 767 780 766 768 773 771 760 764 779 777 772 765 760 774 750 772 762 766 783 769 768 773 764 765 773 781 769 765 762 780 773 778 780 780 766 780 781 781 764 764 775 764 772 765 780 774 782 774 763 763 781 768 764 766 768 778 774 762 765 767 771 783 749 764 771 770 765 778 761 782 768 781 763 767 778 762 776 773 771 777 764 761 769 771 770 764 757 781 783 773 773 774 767 776 764 768 786 768 769 767 778 779 774 779 779 778 771 776 768 768 766 767 773 768 765 770 757 767 784 769 766 778 777 774 764 772 777 763 780 781 778 761 776 767 765 778 777 758 750 768 758 766 771 774 764 784 763 770 764 780 770 778 754 768 782 777 760 778 771 766 779 775 781 773 771 765 775 773 778 761 765 768 751 776 773 771 763 769 757 774 775 779 777 763 778 761 766 775 759 779 770 768 779 773 776 779 762 766 769 783 773 776 777 772 766 769 778 769 774 768 764 775 772 782 763 775 770 761 767 779 773 772 763 774 770 783 780 769 763 763 779 776 775 764 771 781 769 782 779 782 763 766 761 769 769 767 765 774 774 785 763 774 758 768 776 769 764 773 772 771 781 771 784 779 777 778 769 770 772 764 766 781 766 765 766 783 763 776 781 780 773 772

Tree=0
num_leaves=6
num_cat=0
split_feature=8 3 3 3 0
split_gain=19027.5 10042 59.6744 34.8198 33.7607
threshold=inf 1.0000000180025095e-35 407.50000000000006 234.50000000000003 312.05000000000007
decision_type=8 10 10 10 2
left_child=1 -1 3 -3 -4
right_child=-2 2 4 -5 -6
leaf_value=-0.37549369011659484 -0.37549369448066705 -0.056541646934635842 -0.055470676148513864 -0.035192235975842784 -0.074809160153077758
leaf_weight=1157.680318236351 3836.1473617553711 1569.828381896019 1806.1200001239777 1488.0922875404358 1804.8815744519234
leaf_count=4674 15488 6338 7292 6008 7287
internal_value=-0.19305 -0.103626 -0.0564317 -0.0461523 -0.0651366
internal_weight=0 7826.6 6668.92 3057.92 3611
internal_count=47087 31599 26925 12346 14579
is_linear=0
shrinkage=1


Tree=1
num_leaves=6
num_cat=0
split_feature=5 8 5 2 8
split_gain=16301.7 8072.68 10.1181 15.2878 11.8688
threshold=inf inf 1.0000000180025095e-35 1.8500000000000003 72.250000000000014
decision_type=8 8 10 2 8
left_child=1 2 -1 -4 -5
right_child=-2 -3 3 4 -6
leaf_value=0.12455664524563721 -0.17097175230686759 -0.16869500367593313 0.11321360516067876 -0.12200422300190739 0.094313605210496712
leaf_weight=6095.2224637567997 3769.2395928651094 1101.9489769637585 615.92598311603069 4.9200883656740162 5.2353452742099771
leaf_count=24442 15568 4565 2471 20 21
internal_value=0 0.0821822 0.123313 0.111207 -0.0104878
internal_weight=0 7823.25 6721.3 626.081 10.1554
internal_count=47087 31519 26954 2512 41
is_linear=0
shrinkage=0.1


Tree=2
num_leaves=6
num_cat=0
split_feature=3 8 3 0 8
split_gain=13388 6840.82 44.8181 30.8337 68.9654
threshold=1.0000000180025095e-35 inf 407.50000000000006 319.05000000000007 12.15
decision_type=10 8 10 2 10
left_child=-1 2 3 -2 -5
right_child=1 -3 -4 4 -6
leaf_value=-0.15977597614503536 0.11083772305115339 -0.1579373191052923 0.10356373552330927 0.0109246081087145 0.13504655440755248
leaf_weight=3601.7030402719975 1682.8971154689789 1100.0195053219795 3638.9235715568066 46.298496529459953 1351.1079394966364
leaf_count=15426 6746 4736 14579 186 5414
internal_value=0 0.0732325 0.111078 0.119955 0.130934
internal_weight=0 7819.25 6719.23 3080.3 1397.41
internal_count=47087 31661 26925 12346 5600
is_linear=0
shrinkage=0.1


Tree=3
num_leaves=6
num_cat=0
split_feature=7 5 3 3 3
split_gain=12108.7 6004.62 2211.95 26.923 14.0356
threshold=1.0000000180025095e-35 inf 1.0000000180025095e-35 1739.5000000000002 2344.5000000000005
decision_type=10 8 10 10 8
left_child=4 2 -2 -4 -1
right_child=1 -3 3 -5 -6
leaf_value=-0.16475818957219432 -0.15474679552282575 -0.15316232073370328 0.11847805261142136 0.071690017176688436 -0.15098476589161783
leaf_weight=1067.756870508194 313.0771486312151 1044.9249287843704 6205.1123467534781 125.47245369851589 2409.2768347710371
leaf_count=4654 1380 4671 25067 507 10808
internal_value=0 0.0696713 0.104719 0.117551 -0.155214
internal_weight=0 7688.59 6643.66 6330.58 3477.03
internal_count=47087 31625 26954 25574 15462
is_linear=0
shrinkage=0.1


Tree=4
num_leaves=6
num_cat=0
split_feature=5 3 8 3 5
split_gain=9999.47 5017.71 1788.88 24.4582 86.3984
threshold=inf 1.0000000180025095e-35 inf 553.50000000000011 1.0000000180025095e-35
decision_type=8 10 8 10 10
left_child=1 -1 3 4 -3
right_child=-2 2 -4 -5 -6
leaf_value=-0.14709158638425654 -0.14559752317678573 0.11167014388268173 -0.14654717000099554 0.097963343504619979 -0.17316590137512522
leaf_weight=987.0329354852438 3301.2949273586273 3917.6974516808987 293.43838851153851 2329.5729137510061 10.678162470459936
leaf_count=4574 15568 16042 1365 9495 43
internal_value=0 0.063099 0.0947663 0.106082 0.110896
internal_weight=0 7538.42 6551.39 6257.95 3928.38
internal_count=47087 31519 26945 25580 16085
is_linear=0
shrinkage=0.1


Tree=5
num_leaves=6
num_cat=0
split_feature=5 3 3 3 5
split_gain=8547.14 4220.93 31.9854 21.3902 161.998
threshold=inf 1.0000000180025095e-35 1739.5000000000002 553.50000000000011 1.0000000180025095e-35
decision_type=8 10 10 10 10
left_child=1 -1 3 4 -3
right_child=-2 2 -4 -5 -6
leaf_value=-0.14070026415204917 -0.13951637409826573 0.094210286796547749 0.03873205032162317 0.08038118356264673 -0.14554732259456207
leaf_weight=931.53553639352322 3110.4849982708693 3978.3680612444878 133.97477546334267 2281.1541427671909 28.382518664002419
leaf_count=4574 15568 16719 559 9536 131
internal_value=0 0.0582254 0.0870809 0.0881111 0.0925119
internal_weight=0 7353.42 6421.88 6287.9 4006.75
internal_count=47087 31519 26945 26386 16850
is_linear=0
shrinkage=0.1


Tree=6
num_leaves=6
num_cat=0
split_feature=7 5 5 0 7
split_gain=7840 3617.68 8.26863 7.07309 41.2218
threshold=1.0000000180025095e-35 inf inf 301.65000000000003 291.35000000000008
decision_type=10 8 8 2 10
left_child=2 3 -1 4 -2
right_child=1 -3 -4 -5 -6
leaf_value=-0.14587872332913945 0.10123093952094997 -0.13456274289574882 -0.13440139284509312 0.081625773549608996 -0.15258632972829425
leaf_weight=906.7744052708149 336.20719240605831 875.39775784313679 2039.5896665006876 5937.3488555252552 6.5226977318525305
leaf_count=4565 1431 4671 10897 25490 33
internal_value=0 0.055885 -0.137934 0.0824321 0.0964004
internal_weight=0 7155.48 2946.36 6280.08 342.73
internal_count=47087 31625 15462 26954 1464
is_linear=0
shrinkage=0.1


Tree=7
num_leaves=6
num_cat=0
split_feature=7 8 5 3 3
split_gain=6747.22 3219.75 1228.96 489.331 15.9892
threshold=1.0000000180025095e-35 inf inf 1.0000000180025095e-35 1739.5000000000002
decision_type=10 8 8 10 10
left_child=-1 2 3 -2 -5
right_child=1 -3 -4 4 -6
leaf_value=-0.13327531937350082 -0.14600528961060011 -0.13258610019551453 -0.13544164251254839 0.09035170824901792 0.052861872148066286
leaf_weight=2754.2797133922577 89.512931570410728 835.94995385408401 261.7265400737524 5679.7607313543558 116.0877258181572
leaf_count=15462 415 4646 1413 24663 488
internal_value=0 0.0515477 0.0765882 0.0860174 0.0896008
internal_weight=0 6983.04 6147.09 5885.36 5795.85
internal_count=47087 31625 26979 25566 25151
is_linear=0
shrinkage=0.1


Tree=8
num_leaves=6
num_cat=0
split_feature=5 8 3 3 5
split_gain=5464.16 2714.97 1129.74 20.5072 45.6542
threshold=inf inf 1.0000000180025095e-35 516.50000000000011 1.0000000180025095e-35
decision_type=8 8 10 10 10
left_child=1 2 -1 4 -4
right_child=-2 -3 3 -5 -6
leaf_value=-0.13469371310116957 -0.12646580457768281 -0.12959746725649843 0.083722678002935563 0.071012669036864651 -0.13388497203095176
leaf_weight=261.30027155578136 2523.0648522377014 780.35665878653526 3275.9002660214901 2463.0674860626459 9.6696518957614881
leaf_count=1374 15568 4565 14700 10839 41
internal_value=0 0.0458822 0.0686673 0.0779109 0.0830822
internal_weight=0 6790.29 6009.94 5748.64 3285.57
internal_count=47087 31519 26954 25580 14741
is_linear=0
shrinkage=0.1


Tree=9
num_leaves=6
num_cat=0
split_feature=7 8 3 3 7
split_gain=5156.87 2359.63 867.776 16.1054 23.1267
threshold=1.0000000180025095e-35 inf 1.0000000180025095e-35 407.50000000000006 293.35000000000008
decision_type=10 8 10 10 10
left_child=-1 2 -2 -4 -5
right_child=1 -3 3 4 -6
leaf_value=-0.12680228631079116 -0.12611545261468146 -0.12527007938108978 0.079960339263126373 0.074907747441009753 0.055874118888276036
leaf_weight=2382.4273327142 225.23235966265202 722.90750806033611 2544.8923166245222 2118.0670545548201 913.76912043988705
leaf_count=15462 1419 4646 11817 9598 4145
internal_value=0 0.0450955 0.0663226 0.0740947 0.0691712
internal_weight=0 6524.87 5801.96 5576.73 3031.84
internal_count=47087 31625 26979 25560 13743
is_linear=0
shrinkage=0.1


Tree=10
num_leaves=6
num_cat=0
split_feature=7 3 3 3 7
split_gain=4493.32 1956.92 19.2338 12.4546 43.7983
threshold=1.0000000180025095e-35 1.0000000180025095e-35 1739.5000000000002 553.50000000000011 290.75000000000006
decision_type=10 10 10 10 10
left_child=-1 -2 3 -3 -5
right_child=1 2 -4 4 -6
leaf_value=-0.12385302785311103 -0.12124041967952802 0.065472658086472221 0.021459325737096573 0.067886196482136743 0.037979903396948678
leaf_weight=2204.3856352865696 657.79139620065689 3505.2683937996626 120.36712495982647 1194.0247392058372 830.18411347270012
leaf_count=15462 4634 16906 550 5614 3921
internal_value=0 0.0419998 0.0610053 0.0618661 0.0556208
internal_weight=0 6307.64 5649.84 5529.48 2024.21
internal_count=47087 31625 26991 26441 9535
is_linear=0
shrinkage=0.1


Tree=11
num_leaves=6
num_cat=0
split_feature=5 8 3 3 5
split_gain=3729 1765.91 705.815 15.6738 23.9794
threshold=inf inf 1.0000000180025095e-35 415.50000000000006 1.0000000180025095e-35
decision_type=8 8 10 10 10
left_child=1 2 -1 4 -4
right_child=-2 -3 3 -5 -6
leaf_value=-0.12366394422655254 -0.11916103048271581 -0.12150180401337259 0.069111014696996445 0.057696405423297452 -0.11383931510915526
leaf_weight=211.16564780473709 2013.2198372632265 626.534607835114 2464.9135702103376 2848.0477024018764 7.1851048022508612
leaf_count=1374 15568 4565 12089 13458 33
internal_value=0 0.0376135 0.0556366 0.0627533 0.0685793
internal_weight=0 6157.85 5531.31 5320.15 2472.1
internal_count=47087 31519 26954 25580 12122
is_linear=0
shrinkage=0.1


Tree=12
num_leaves=6
num_cat=0
split_feature=7 8 5 8 5
split_gain=3489.71 1594.24 647.853 8.16442 11.2402
threshold=1.0000000180025095e-35 inf inf inf 1.0000000180025095e-35
decision_type=10 8 8 8 8
left_child=3 2 -2 4 -1
right_child=1 -3 -4 -5 -6
leaf_value=-0.14781588397459702 0.060607327948277695 -0.11918378771089705 -0.12494170155073613 -0.11507121649442829 -0.11974699322727711
leaf_weight=212.17273946106434 5142.5994102954865 591.70910079032183 195.32086946070194 1230.684147618711 435.51762291789055
leaf_count=1241 25566 4646 1413 10842 3379
internal_value=0 0.0365543 0.0538179 -0.119854 -0.128942
internal_weight=0 5929.63 5337.92 1878.37 647.69
internal_count=47087 31625 26979 15462 4620
is_linear=0
shrinkage=0.1


Tree=13
num_leaves=6
num_cat=0
split_feature=7 5 0 7 0
split_gain=3058.9 1334.38 5.89471 19.6903 7.96296
threshold=1.0000000180025095e-35 inf 301.65000000000003 291.35000000000008 319.05000000000007
decision_type=10 8 2 10 2
left_child=-1 2 3 -2 -4
right_child=1 -3 4 -5 -6
leaf_value=-0.11772757353551873 0.066752826613626012 -0.11686318529773272 0.045467234981411489 -0.15113374536588534 0.053738276837204307
leaf_weight=1728.6913076862693 278.13087677955627 531.71920745819807 3029.0847907885909 4.2102876976132384 1890.4646919742227
leaf_count=15462 1431 4671 15647 33 9843
internal_value=0 0.0340284 0.049452 0.0635037 0.0486456
internal_weight=0 5733.61 5201.89 282.341 4919.55
internal_count=47087 31625 26954 1464 25490
is_linear=0
shrinkage=0.1


Tree=14
num_leaves=6
num_cat=0
split_feature=8 3 3 3 3
split_gain=2498.91 1111 18.5855 26.2087 30.7374
threshold=inf 1.0000000180025095e-35 407.50000000000006 234.50000000000003 225.50000000000003
decision_type=8 10 10 10 10
left_child=1 -1 3 4 -3
right_child=-2 2 -4 -5 -6
leaf_value=-0.11454639117764623 -0.11356283360934122 0.046530707421506598 0.03811166226372862 0.061219635651606763 0.00097605278001320305
leaf_weight=486.77792157232761 1550.49705825001 1010.1279220283031 2835.0441445410252 1114.2923012822866 173.56625191867352
leaf_count=4674 15488 5406 14579 6008 932
internal_value=0 0.0298369 0.0435291 0.0502126 0.039851
internal_weight=0 5619.81 5133.03 2297.99 1183.69
internal_count=47087 31599 26925 12346 6338
is_linear=0
shrinkage=0.1


Tree=15
num_leaves=6
num_cat=0
split_feature=7 0 7 0 7
split_gain=2447.79 6.33366 41.6757 92.5379 25.642
threshold=1.0000000180025095e-35 319.05000000000007 293.95000000000005 306.25000000000006 296.25000000000006
decision_type=10 2 10 2 10
left_child=-1 2 -2 -4 -3
right_child=1 4 3 -5 -6
leaf_value=-0.11546238981502695 0.033801204181551428 0.024572681121891857 -0.10737438289630329 0.017633725089164023 0.047744448241068715
leaf_weight=1474.4913837462664 2561.084140278399 1128.1198968589306 63.666585445404053 847.2122600376606 828.14496418088675
leaf_count=15462 14722 6722 546 4930 4705
internal_value=0 0.0298313 0.0272673 0.00889618 0.034382
internal_weight=0 5428.23 3471.96 910.879 1956.26
internal_count=47087 31625 20198 5476 11427
is_linear=0
shrinkage=0.1


Tree=16
num_leaves=6
num_cat=0
split_feature=7 8 3 3 3
split_gain=2150.25 1084.98 391.507 14.7045 8.49531
threshold=1.0000000180025095e-35 inf 1.0000000180025095e-35 1739.5000000000002 407.50000000000006
decision_type=10 8 10 10 10
left_child=-1 2 -2 4 -4
right_child=1 -3 3 -5 -6
leaf_value=-0.1139884822151237 -0.11649265348957874 -0.11534336246199978 0.051949660845387324 0.0089207452698046273 0.043347072087917542
leaf_weight=1350.5425883606076 152.18943022191525 485.73602549731731 2118.4630638062954 102.09650193154812 2505.7577538341284
leaf_count=15462 1419 4646 11817 499 13244
internal_value=0 0.0271848 0.0413759 0.0464593 0.0472881
internal_weight=0 5364.24 4878.51 4726.32 4624.22
internal_count=47087 31625 26979 25560 25061
is_linear=0
shrinkage=0.1


Tree=17
num_leaves=6
num_cat=0
split_feature=7 3 3 3 7
split_gain=1898.34 867.592 14.3333 8.25908 35.3719
threshold=1.0000000180025095e-35 1.0000000180025095e-35 1739.5000000000002 553.50000000000011 290.75000000000006
decision_type=10 10 10 10 10
left_child=-1 -2 3 -3 -5
right_child=1 2 -4 4 -6
leaf_value=-0.11266594735470002 -0.11232722821130992 0.041411585903614177 0.001252227882525842 0.044687738334664696 0.015723722184008467
leaf_weight=1235.6321399211884 421.42832922190428 2934.4067774936557 107.55417431890965 1019.9365032315254 718.78281837701797
leaf_count=15462 4634 16906 550 5614 3921
internal_value=0 0.0252197 0.0373448 0.0381755 0.0327141
internal_weight=0 5202.11 4780.68 4673.13 1738.72
internal_count=47087 31625 26991 26441 9535
is_linear=0
shrinkage=0.1


Tree=18
num_leaves=6
num_cat=0
split_feature=5 7 8 3 3
split_gain=1704.15 817.284 411.781 146.438 11.6851
threshold=inf 1.0000000180025095e-35 inf 1.0000000180025095e-35 1349.5000000000002
decision_type=8 10 8 10 10
left_child=1 -1 3 -3 -5
right_child=-2 2 -4 4 -6
leaf_value=-0.11721193276392552 -0.11064570774414394 -0.11936594124734534 -0.11918473907416978 0.044243207740701923 0.021451994742167555
leaf_weight=379.98268987983465 1158.6293821260333 56.231463111937046 166.41072933375835 4211.5336080789566 237.64896847307682
leaf_count=4565 15568 415 1388 23904 1247
internal_value=0 0.0238223 0.0352933 0.040999 0.0430258
internal_weight=0 5051.81 4671.82 4505.41 4449.18
internal_count=47087 31519 26954 25566 25151
is_linear=0
shrinkage=0.1


Tree=19
num_leaves=6
num_cat=0
split_feature=5 7 8 7 0
split_gain=1508.88 711.267 355.293 4.62762 7.25621
threshold=inf 1.0000000180025095e-35 inf 281.55000000000007 302.75000000000006
decision_type=8 10 8 10 2
left_child=1 -1 3 -3 -5
right_child=-2 2 -4 4 -6
leaf_value=-0.11564409849672602 -0.10959842738232038 0.029571531320493595 -0.1171173675833283 0.054494664075530899 0.037883791720009309
leaf_weight=348.2456452101469 1057.876701194793 585.24006125330925 153.09574119001627 284.16363174468279 3527.9854204505682
leaf_count=4565 15568 3363 1388 1664 20539
internal_value=0 0.022096 0.0326372 0.0378509 0.039122
internal_weight=0 4898.73 4550.48 4397.39 3812.15
internal_count=47087 31519 26954 25566 22203
is_linear=0
shrinkage=0.1


Tree=20
num_leaves=6
num_cat=0
split_feature=5 7 3 3 3
split_gain=1337.23 619.402 276.935 10.8442 13.4376
threshold=inf 1.0000000180025095e-35 1.0000000180025095e-35 1349.5000000000002 1379.5000000000002
decision_type=8 10 10 10 10
left_child=1 -1 -3 -4 -5
right_child=-2 2 3 4 -6
leaf_value=-0.11421720424277904 -0.10865930760593633 -0.11305149553203112 0.035625457094589225 -0.10810345283916976 0.01824962862987518
leaf_weight=318.84116410464048 965.05652881786227 131.20721124857664 4081.3613607734442 8.7410717159509641 226.89913237094879
leaf_count=4565 15568 1380 24294 50 1230
internal_value=0 0.0204206 0.0300712 0.0344212 0.0135625
internal_weight=0 4767.05 4448.21 4317 235.64
internal_count=47087 31519 26954 25574 1280
is_linear=0
shrinkage=0.1


Tree=21
num_leaves=6
num_cat=0
split_feature=5 7 3 3 3
split_gain=1186.53 540.198 239.809 9.99504 9.11347
threshold=inf 1.0000000180025095e-35 1.0000000180025095e-35 1739.5000000000002 142.50000000000003
decision_type=8 10 10 10 10
left_child=1 -1 -3 4 -4
right_child=-2 2 3 -5 -6
leaf_value=-0.1129179478161116 -0.10781594971096758 -0.1116806319152272 0.018803804779142848 0.00020599553544460114 0.033989161650396421
leaf_weight=291.64946466311812 879.70085817575455 120.10369722917676 442.57095824182034 98.96151576936245 3693.5817265734076
leaf_count=4565 15568 1380 2762 507 22305
internal_value=0 0.0188382 0.0276613 0.0316129 0.0323643
internal_weight=0 4646.87 4355.22 4235.11 4136.15
internal_count=47087 31519 26954 25574 25067
is_linear=0
shrinkage=0.1


Tree=22
num_leaves=6
num_cat=0
split_feature=5 8 3 3 3
split_gain=1054.06 470.355 180.152 10.639 22.1061
threshold=inf inf 1.0000000180025095e-35 407.50000000000006 251.50000000000003
decision_type=8 8 10 10 10
left_child=1 2 -1 4 -4
right_child=-2 -3 3 -5 -6
leaf_value=-0.10986268430133039 -0.10705764767951174 -0.11012644964179408 0.02555603713314783 0.024100935463314328 0.04801004152066915
leaf_weight=96.12524588778615 801.33649953454733 272.08122853934765 1129.5596631839871 2321.8683372735977 716.61993063986301
leaf_count=1374 15568 4565 7161 13760 4659
internal_value=0 0.0173507 0.0254846 0.028606 0.0342719
internal_weight=0 4536.25 4264.17 4168.05 1846.18
internal_count=47087 31519 26954 25580 11820
is_linear=0
shrinkage=0.1


Tree=23
num_leaves=6
num_cat=0
split_feature=5 7 3 3 7
split_gain=937.462 433.537 181.754 8.50291 25.6537
threshold=inf 1.0000000180025095e-35 1.0000000180025095e-35 553.50000000000011 293.25000000000006
decision_type=8 10 10 10 10
left_child=1 -1 -3 -4 -5
right_child=-2 2 3 4 -6
leaf_value=-0.11214961879216778 -0.1063751187394173 -0.10939227676796492 0.030493678293125812 0.028961761156834562 0.00054679508140448817
leaf_weight=249.33443610742688 729.49413885548711 100.32460117340088 2493.427370890975 1154.26458530128 438.40635094791651
leaf_count=4565 15568 1380 16095 6923 2556
internal_value=0 0.0159534 0.023583 0.0268479 0.0211401
internal_weight=0 4435.76 4186.42 4086.1 1592.67
internal_count=47087 31519 26954 25574 9479
is_linear=0
shrinkage=0.1


Tree=24
num_leaves=6
num_cat=0
split_feature=7 0 7 7 1
split_gain=831.295 5.26007 40.3764 8.49757 14.4527
threshold=1.0000000180025095e-35 302.75000000000006 291.05000000000007 284.75000000000006 1.8500000000000003
decision_type=10 2 10 10 2
left_child=-1 2 -2 4 -3
right_child=1 3 -4 -5 -6
leaf_value=-0.10679868489581611 0.034091481169297222 0.011227106662565711 -0.095134494756948546 0.01559536083824317 -0.021889795296630196
leaf_weight=650.06950433179736 364.15957500785589 590.28614360839128 25.897907190024853 3204.8831624723971 169.65485275164247
leaf_count=15462 2502 4295 332 23223 1273
internal_value=0 0.0144311 0.0255115 0.013341 0.00383384
internal_weight=0 4354.88 390.057 3964.82 759.941
internal_count=47087 31625 2834 28791 5568
is_linear=0
shrinkage=0.1


Tree=25
num_leaves=6
num_cat=0
split_feature=5 7 3 3 3
split_gain=781.378 337.439 156.941 8.45254 11.2866
threshold=inf 1.0000000180025095e-35 1.0000000180025095e-35 1349.5000000000002 1379.5000000000002
decision_type=8 10 10 10 10
left_child=1 -1 -3 -4 -5
right_child=-2 2 3 4 -6
leaf_value=-0.11008631802504142 -0.10560104989090993 -0.10853609003776897 0.02442920630842876 -0.10695324110451035 0.0089498147907903485
leaf_weight=208.56888612359762 626.2800513394177 92.378672383725643 3762.980050496757 8.743697524070738 214.87315280735493
leaf_count=4565 15568 1380 24294 50 1230
internal_value=0 0.0139771 0.0203208 0.0233067 0.00441784
internal_weight=0 4287.54 4078.98 3986.6 223.617
internal_count=47087 31519 26954 25574 1280
is_linear=0
shrinkage=0.1


Tree=26
num_leaves=6
num_cat=0
split_feature=8 7 3 3 7
split_gain=705.84 339.953 118.241 7.53392 24.1183
threshold=inf 1.0000000180025095e-35 1.0000000180025095e-35 407.50000000000006 297.65000000000003
decision_type=8 10 10 10 10
left_child=1 -1 -3 -4 -5
right_child=-2 2 3 4 -6
leaf_value=-0.10922632230715888 -0.10587970128255453 -0.10712301705468608 0.026782649169373521 0.022142682376469682 -0.0082506482051534057
leaf_weight=216.2932775914669 568.05937372893095 72.414995800703764 1723.4969652071595 1892.1856985092163 302.88328390568495
leaf_count=4620 15488 1419 11817 11875 1868
internal_value=0 0.0128769 0.0194944 0.0218342 0.0179489
internal_weight=0 4207.27 3990.98 3918.57 2195.07
internal_count=47087 31599 26979 25560 13743
is_linear=0
shrinkage=0.1


Tree=27
num_leaves=6
num_cat=0
split_feature=5 7 3 3 3
split_gain=630.486 261.858 120.549 7.92387 21.1611
threshold=inf 1.0000000180025095e-35 1.0000000180025095e-35 142.50000000000003 137.50000000000003
decision_type=8 10 10 10 10
left_child=1 -1 -3 4 -4
right_child=-2 2 3 -5 -6
leaf_value=-0.1083240503502738 -0.10486661040118206 -0.10690139585255361 0.012998873239445924 0.02114892986273844 -0.072411376577567604
leaf_weight=173.65354732610285 521.18863746523857 76.821206832304597 374.27106673270464 3469.0403493344784 31.445186570286751
leaf_count=4565 15568 1380 2548 22812 214
internal_value=0 0.0118615 0.0171431 0.0196024 0.00637911
internal_weight=0 4125.23 3951.58 3874.76 405.716
internal_count=47087 31519 26954 25574 2762
is_linear=0
shrinkage=0.1


Tree=28
num_leaves=6
num_cat=0
split_feature=8 7 8 0 7
split_gain=573.493 264.625 5.30239 4.00906 16.1936
threshold=inf 1.0000000180025095e-35 528.30000000000007 319.05000000000007 294.25000000000006
decision_type=8 10 10 2 10
left_child=1 -1 3 4 -3
right_child=-2 2 -4 -5 -6
leaf_value=-0.10758110528844687 -0.10528552453761278 0.018363349705831242 0.085494972178676132 0.020561236318135976 -0.00062994213690000303
leaf_weight=179.98080207966268 474.04279951378703 1888.3900126665831 11.093145824968813 1388.2583787404001 588.87390554882586
leaf_count=4620 15488 13019 76 9776 4108
internal_value=0 0.0109541 0.0164574 0.0162593 0.0138484
internal_weight=0 4056.6 3876.62 3865.52 2477.26
internal_count=47087 31599 26979 26903 17127
is_linear=0
shrinkage=0.1


Tree=29
num_leaves=6
num_cat=0
split_feature=5 7 3 3 3
split_gain=515.474 204.606 98.5277 8.15747 8.10304
threshold=inf 1.0000000180025095e-35 1.0000000180025095e-35 1739.5000000000002 130.50000000000003
decision_type=8 10 10 10 10
left_child=1 -1 -3 4 -4
right_child=-2 2 3 -5 -6
leaf_value=-0.10686006888605955 -0.10429481986478605 -0.10611245905384148 0.0019464887152230454 -0.012747464948428561 0.018759433013684403
leaf_weight=144.1715036239475 436.96992114931345 66.582161337137222 313.2192020341754 92.406568467617035 3380.0249155983329
leaf_count=4565 15568 1380 2174 507 22893
internal_value=0 0.010101 0.0144783 0.0165993 0.0173335
internal_weight=0 3996.4 3852.23 3785.65 3693.24
internal_count=47087 31519 26954 25574 25067
is_linear=0
shrinkage=0.1


Tree=30
num_leaves=6
num_cat=0
split_feature=8 5 8 0 0
split_gain=468.172 213.219 4.4566 3.37128 5.14867
threshold=inf inf 528.30000000000007 302.75000000000006 319.05000000000007
decision_type=8 8 10 2 2
left_child=1 2 3 -1 -5
right_child=-2 -3 -4 4 -6
leaf_value=0.023286717543248459 -0.10481833085852937 -0.10620043306563512 0.079050777903847486 0.0097172052263861872 0.017639097729297653
leaf_weight=339.3358426745981 395.81372412852943 153.67131911590695 10.489150296896694 2082.1081503927708 1353.9069624487311
leaf_count=2458 15488 4645 77 14643 9776
internal_value=0 0.00927151 0.0139586 0.0137778 0.0128387
internal_weight=0 3939.51 3785.84 3775.35 3436.02
internal_count=47087 31599 26954 26877 24419
is_linear=0
shrinkage=0.1


Tree=31
num_leaves=6
num_cat=0
split_feature=5 3 3 3 5
split_gain=412.261 153.867 7.85032 23.1253 18.558
threshold=inf 1.0000000180025095e-35 553.50000000000011 616.50000000000011 1.0000000180025095e-35
decision_type=8 10 10 10 10
left_child=1 -1 4 -4 -3
right_child=-2 2 3 -5 -6
leaf_value=-0.10371194333221448 -0.10352492866401651 0.016109657996526128 -0.052813188399108368 0.0088633519056777535 -0.13322762320218659
leaf_weight=118.77322497963905 359.7789528593421 2277.4379628170282 63.500426700338721 1425.3808286245912 8.3518300894647819
leaf_count=4574 15568 16719 438 9657 131
internal_value=0 0.00835708 0.0118834 0.00623286 0.015564
internal_weight=0 3893.44 3774.67 1488.88 2285.79
internal_count=47087 31519 26945 10095 16850
is_linear=0
shrinkage=0.1


Tree=32
num_leaves=6
num_cat=0
split_feature=7 3 3 3 3
split_gain=354.71 154.265 6.64814 9.50303 7.77349
threshold=1.0000000180025095e-35 1.0000000180025095e-35 1349.5000000000002 1379.5000000000002 1117.5000000000002
decision_type=10 10 10 10 10
left_child=-1 -2 4 -4 -3
right_child=1 2 3 -5 -6
leaf_value=-0.10375420055118173 -0.10340378295385973 0.010723118756482262 -0.10615396578830816 -0.0018328592970321225 0.031472970808096211
leaf_weight=311.31669653952122 122.12544159777462 3340.6284223739058 9.1177263949066383 206.42770597152412 190.86020403914154
leaf_count=15462 4634 24290 59 1313 1329
internal_value=0 0.00719909 0.0108039 -0.00624574 0.0118446
internal_weight=0 3869.16 3747.03 215.545 3531.49
internal_count=47087 31625 26991 1372 25619
is_linear=0
shrinkage=0.1


Tree=33
num_leaves=6
num_cat=0
split_feature=8 7 5 3 3
split_gain=358.282 161.344 84.9667 33.0823 6.34943
threshold=inf 1.0000000180025095e-35 inf 1.0000000180025095e-35 407.50000000000006
decision_type=8 10 8 10 10
left_child=1 -1 3 -3 -5
right_child=-2 2 -4 4 -6
leaf_value=-0.1058900503781852 -0.10452125096525096 -0.10631555255697883 -0.10824037514091299 0.018589833410775362 0.010127544536924653
leaf_weight=121.70815604738891 309.30915878806263 23.065096622332931 58.675782632082701 1576.140374623239 2026.9142372310162
leaf_count=4620 15488 415 1413 11659 13492
internal_value=0 0.00739179 0.0111335 0.0130651 0.0138293
internal_weight=0 3806.5 3684.8 3626.12 3603.05
internal_count=47087 31599 26979 25566 25151
is_linear=0
shrinkage=0.1


Tree=34
num_leaves=6
num_cat=0
split_feature=8 7 5 3 3
split_gain=321.116 143.205 74.9946 29.1763 6.64592
threshold=inf 1.0000000180025095e-35 inf 1.0000000180025095e-35 130.50000000000003
decision_type=8 10 8 10 10
left_child=1 -1 3 -3 -5
right_child=-2 2 -4 4 -6
leaf_value=-0.10534113402618235 -0.104124887716022 -0.10567881669242203 -0.10742866774414705 -0.001802040294230263 0.013862635951702172
leaf_weight=110.67072215303779 280.8857577778399 20.989485867321491 53.472707635723054 295.25607785582542 3275.1382838115096
leaf_count=4620 15488 415 1413 2130 23021
internal_value=0 0.0067232 0.0101259 0.0118762 0.0125672
internal_weight=0 3755.53 3644.86 3591.38 3570.39
internal_count=47087 31599 26979 25566 25151
is_linear=0
shrinkage=0.1


Tree=35
num_leaves=6
num_cat=0
split_feature=8 7 5 7 7
split_gain=288.014 127.277 66.3085 4.23938 4.96061
threshold=inf 1.0000000180025095e-35 inf 307.55000000000007 305.65000000000003
decision_type=8 10 8 10 10
left_child=1 -1 3 4 -3
right_child=-2 2 -4 -5 -6
leaf_value=-0.10484232443692394 -0.10376072133118382 0.010785442252148246 -0.1066991361640167 0.049338860805820783 -0.034912147049204534
leaf_weight=100.59118723776191 255.00264290254563 3508.0604239646345 48.698033201508224 28.29423414170742 23.916535694152117
leaf_count=4620 15488 25190 1413 204 172
internal_value=0 0.00610713 0.00919957 0.0107849 0.010476
internal_weight=0 3709.56 3608.97 3560.27 3531.98
internal_count=47087 31599 26979 25566 25362
is_linear=0
shrinkage=0.1


Tree=36
num_leaves=6
num_cat=0
split_feature=3 3 3 3 1
split_gain=217.268 6.22484 8.34699 6.8486 13.898
threshold=1.0000000180025095e-35 1739.5000000000002 1654.5000000000002 1537.5000000000002 1.7500000000000002
decision_type=10 10 10 10 2
left_child=-1 2 3 -2 -5
right_child=1 -3 -4 4 -6
leaf_value=-0.10167594154556621 0.00532867481659954 -0.020765019478265919 0.069563683938176066 -0.06950676310661523 0.10220590620783865
leaf_weight=202.90662248618901 3551.992559319362 94.270098612643778 20.077312923967838 27.63655168004334 5.6827177219092837
leaf_count=15426 30525 707 145 234 50
internal_value=0 0.00460216 0.00526544 0.00490537 -0.0402205
internal_weight=0 3699.66 3605.39 3585.31 33.3193
internal_count=47087 31661 30954 30809 284
is_linear=0
shrinkage=0.1


Tree=37
num_leaves=6
num_cat=0
split_feature=8 5 3 3 3
split_gain=245.198 104.276 37.6947 5.95085 19.9826
threshold=inf inf 1.0000000180025095e-35 407.50000000000006 251.50000000000003
decision_type=8 8 10 10 10
left_child=1 2 -1 4 -4
right_child=-2 -3 3 -5 -6
leaf_value=-0.10328024178135986 -0.10349671825960843 -0.10390372827811865 0.0046006065868039849 0.0052701433834170912 0.028051031294134256
leaf_weight=30.224812742322683 219.56575962435454 85.383661123923957 953.02021279372275 1997.7541697863489 587.29899725317955
leaf_count=1374 15488 4645 7161 13760 4659
internal_value=0 0.00530806 0.00792132 0.00887129 0.0135419
internal_weight=0 3653.68 3568.3 3538.07 1540.32
internal_count=47087 31599 26954 25580 11820
is_linear=0
shrinkage=0.1


Tree=38
num_leaves=6
num_cat=0
split_feature=5 7 3 3 3
split_gain=207.998 91.69 37.8543 5.46299 90.8975
threshold=inf 1.0000000180025095e-35 1.0000000180025095e-35 130.50000000000003 128.50000000000003
decision_type=8 10 10 10 8
left_child=1 -1 -3 4 -4
right_child=-2 2 3 -5 -6
leaf_value=-0.10480848645892521 -0.10212131232882496 -0.10295392136498405 0.0076737239168516106 0.0090230092063977706 -0.24441297417372204
leaf_weight=75.081044858321548 192.48700931668282 31.115100434049964 280.50514767318964 3227.1922452822328 15.072366073727606
leaf_count=4565 15568 1380 2063 23400 111
internal_value=0 0.0045509 0.00686128 0.00783123 -0.00518095
internal_weight=0 3628.97 3553.88 3522.77 295.578
internal_count=47087 31519 26954 25574 2174
is_linear=0
shrinkage=0.1


Tree=39
num_leaves=6
num_cat=0
split_feature=8 7 8 7 1
split_gain=203.377 90.9689 4.0159 3.57508 16.5278
threshold=inf 1.0000000180025095e-35 528.30000000000007 284.65000000000003 1.8500000000000003
decision_type=8 10 8 10 2
left_child=1 -1 3 4 -3
right_child=-2 2 -4 -5 -6
leaf_value=-0.10420509157930413 -0.10328764934245803 0.0085657927076345352 0.072906258328269594 0.0082919612568450023 -0.026988137733101727
leaf_weight=75.398441661149263 184.10095995059237 575.19425039365888 9.1677028620615584 2762.808154928498 169.214115800336
leaf_count=4620 15488 4349 76 21270 1284
internal_value=0 0.00447711 0.00680748 0.0066347 0.000483901
internal_weight=0 3591.78 3516.38 3507.22 744.408
internal_count=47087 31599 26979 26903 5633
is_linear=0
shrinkage=0.1


Tree=40
num_leaves=6
num_cat=0
split_feature=5 7 7 0 7
split_gain=172.611 73.2738 3.56717 4.15509 4.05615
threshold=inf 1.0000000180025095e-35 307.55000000000007 324.45000000000005 305.65000000000003
decision_type=8 10 10 2 10
left_child=1 -1 4 -4 -3
right_child=-2 2 3 -5 -6
leaf_value=-0.10395161067173585 -0.10191679908575597 0.0057357918695560214 -0.070290326317100402 0.055824933580522457 -0.035359057506137347
leaf_weight=61.983166875783354 161.32891173148528 3462.0844786330126 2.9328579381108311 23.909577634185553 24.185855236835778
leaf_count=4565 15568 26559 27 185 183
internal_value=0 0.00382869 0.0057303 0.0420452 0.0054507
internal_weight=0 3575.1 3513.11 26.8424 3486.27
internal_count=47087 31519 26954 212 26742
is_linear=0
shrinkage=0.1


Tree=41
num_leaves=6
num_cat=0
split_feature=8 7 3 3 7
split_gain=170.653 72.8365 29.6109 5.09568 22.1399
threshold=inf 1.0000000180025095e-35 1.0000000180025095e-35 407.50000000000006 297.65000000000003
decision_type=8 10 10 10 10
left_child=1 -1 -3 -4 -5
right_child=-2 2 3 4 -6
leaf_value=-0.10345152733607675 -0.10310401321455027 -0.10269138370207076 0.010882752959003417 0.0074342243499911287 -0.023202216400150685
leaf_weight=62.205087259877473 155.87398805096745 25.014022507704794 1502.4187974408269 1682.8156519941986 274.33914820104837
leaf_count=4620 15488 1419 11817 11875 1868
internal_value=0 0.0038039 0.00571858 0.00650242 0.00313984
internal_weight=0 3546.79 3484.59 3459.57 1957.15
internal_count=47087 31599 26979 25560 13743
is_linear=0
shrinkage=0.1


Tree=42
num_leaves=6
num_cat=0
split_feature=8 5 3 3 3
split_gain=153.513 66.3396 24.4713 4.75343 7.28922
threshold=inf inf 1.0000000180025095e-35 1739.5000000000002 1654.5000000000002
decision_type=8 8 10 10 10
left_child=1 2 -1 4 -4
right_child=-2 -3 3 -5 -6
leaf_value=-0.10250178441450659 -0.10282671986365732 -0.10304683908518758 0.0061207993736505642 -0.017004775270567461 0.069539933976172766
leaf_weight=20.966440794058144 141.40164575073868 57.549900008831173 3338.1673725619912 88.572102382779121 18.222318310290575
leaf_count=1374 15488 4645 24945 504 131
internal_value=0 0.00343804 0.00520616 0.00586169 0.00646511
internal_weight=0 3523.48 3465.93 3444.96 3356.39
internal_count=47087 31599 26954 25580 25076
is_linear=0
shrinkage=0.1


Tree=43
num_leaves=6
num_cat=0
split_feature=8 7 5 3 3
split_gain=138.161 61.2838 34.8265 14.4239 4.71507
threshold=inf 1.0000000180025095e-35 inf 1.0000000180025095e-35 130.50000000000003
decision_type=8 10 8 10 10
left_child=1 -1 3 -3 -5
right_child=-2 2 -4 4 -6
leaf_value=-0.10323168383700465 -0.1025726687587174 -0.10312895685932888 -0.1042749056408612 -0.0062094827765356853 0.0071904605869812319
leaf_weight=53.372668205294758 128.24629828799516 12.140688685700296 29.052863718476146 286.71334315091372 3121.3129876479506
leaf_count=4620 15488 415 1413 2130 23021
internal_value=0 0.003104 0.00474942 0.00567553 0.00606314
internal_weight=0 3502.59 3449.22 3420.17 3408.03
internal_count=47087 31599 26979 25566 25151
is_linear=0
shrinkage=0.1


Tree=44
num_leaves=6
num_cat=0
split_feature=8 7 5 7 1
split_gain=124.398 54.8997 31.1048 3.34712 7.21297
threshold=inf 1.0000000180025095e-35 inf 281.55000000000007 1.9500000000000002
decision_type=8 10 8 10 2
left_child=1 -1 3 4 -3
right_child=-2 2 -4 -5 -6
leaf_value=-0.10292752769875468 -0.10234018168065634 0.0036309445233646404 -0.10385983621637079 0.0063721281762390246 -0.027132131344903578
leaf_weight=48.429035748820752 116.29227149346843 365.41116043366492 26.387823014520109 2943.4772264845669 96.304651701822877
leaf_count=4620 15488 2670 1413 22203 693
internal_value=0 0.0028002 0.00429231 0.00513041 -0.00278562
internal_weight=0 3480.01 3431.58 3405.19 461.716
internal_count=47087 31599 26979 25566 3363
is_linear=0
shrinkage=0.1


Tree=45
num_leaves=6
num_cat=0
split_feature=8 7 3 3 3
split_gain=112.06 49.2233 20.2158 4.55328 19.757
threshold=inf 1.0000000180025095e-35 1.0000000180025095e-35 553.50000000000011 616.50000000000011
decision_type=8 10 10 10 10
left_child=1 -1 -3 -4 -5
right_child=-2 2 3 4 -6
leaf_value=-0.10265166949837097 -0.10212765412288238 -0.10201685586452849 0.0074131650146509187 -0.056279831846850939 0.0025330516121230204
leaf_weight=43.932171845808625 105.4334484199062 17.933345205616206 2045.6516480203718 59.755923435091972 1294.0656744968146
leaf_count=4620 15488 1419 16078 405 9077
internal_value=0 0.00252515 0.00387725 0.00443587 -6.28741e-05
internal_weight=0 3461.34 3417.41 3399.47 1353.82
internal_count=47087 31599 26979 25560 9482
is_linear=0
shrinkage=0.1


Tree=46
num_leaves=6
num_cat=0
split_feature=8 5 7 3 3
split_gain=100.99 44.7785 26.3569 11.4961 4.25591
threshold=inf inf 1.0000000180025095e-35 1.0000000180025095e-35 811.50000000000011
decision_type=8 8 10 10 10
left_child=1 2 -1 -4 -5
right_child=-2 -3 3 4 -6
leaf_value=-0.10372992899796343 -0.101933559460955 -0.10232526565069443 -0.1025615462519375 0.0067672393981531923 -0.0011585115040435507
leaf_weight=22.760763143189251 95.572553388541564 40.444042956456542 10.048145643435417 2432.9220393821597 938.98692091554403
leaf_count=1388 15488 4645 415 18657 6494
internal_value=0 0.0022775 0.00352006 0.00424186 0.00456013
internal_weight=0 3445.16 3404.72 3381.96 3371.91
internal_count=47087 31599 26954 25566 25151
is_linear=0
shrinkage=0.1


Tree=47
num_leaves=6
num_cat=0
split_feature=8 7 0 7 7
split_gain=91.0414 39.6341 3.44706 4.81436 6.0777
threshold=inf 1.0000000180025095e-35 301.65000000000003 288.85000000000008 281.55000000000007
decision_type=8 10 2 10 10
left_child=1 -1 3 4 -3
right_child=-2 2 -4 -5 -6
leaf_value=-0.10217137744046206 -0.10175645368933928 -0.0028404804823991547 0.0024046188412302281 -0.02703569704312335 0.037742228335353463
leaf_weight=36.103423055494204 86.62048982270062 58.587927547283471 3211.1753045581281 22.169596567749977 99.701107599772513
leaf_count=4620 15488 451 25509 215 804
internal_value=0 0.00205093 0.00316037 0.0166085 0.0227212
internal_weight=0 3427.74 3391.63 180.459 158.289
internal_count=47087 31599 26979 1470 1255
is_linear=0
shrinkage=0.1


Tree=48
num_leaves=6
num_cat=0
split_feature=3 3 3 3 3
split_gain=66.9273 4.2725 20.5391 34.6826 15.6537
threshold=1.0000000180025095e-35 142.50000000000003 137.50000000000003 138.50000000000003 135.50000000000003
decision_type=10 10 10 10 10
left_child=-1 2 4 -4 -2
right_child=1 -3 3 -5 -6
leaf_value=-0.10067179825580297 -0.0086276474724676349 0.0026581434658292085 -0.22987662092545064 -0.0038801175753439181 0.066449327090012791
leaf_weight=65.416563580278307 307.86488274624571 3063.0329253440723 10.95579028571956 17.861433329293504 30.525452992878854
leaf_count=15426 2912 28188 137 165 259
internal_value=0 0.00143618 -0.00875675 -0.0898001 -0.00185511
internal_weight=0 3430.24 367.208 28.8172 338.39
internal_count=47087 31661 3473 302 3171
is_linear=0
shrinkage=0.1


Tree=49
num_leaves=6
num_cat=0
split_feature=8 5 7 8 7
split_gain=78.2344 37.1556 20.7623 3.36735 2.98331
threshold=inf inf 1.0000000180025095e-35 528.30000000000007 271.45000000000005
decision_type=8 8 10 10 10
left_child=1 2 -1 4 -4
right_child=-2 -3 3 -5 -6
leaf_value=-0.10309913138067311 -0.10163680928726365 -0.10220596951739452 -0.018978696899637069 0.066895594610817774 0.0036568609456005216
leaf_weight=18.400825941702351 74.743173409951851 34.014647854492068 59.274378200061619 8.3352064415812475 3291.3943740138784
leaf_count=1388 15488 4645 425 75 25066
internal_value=0 0.0017867 0.00283404 0.00341435 0.00325643
internal_weight=0 3411.42 3377.4 3359 3350.67
internal_count=47087 31599 26954 25566 25491
is_linear=0
shrinkage=0.1


Tree=50
num_leaves=6
num_cat=0
split_feature=8 5 3 3 1
split_gain=70.5746 33.404 12.7348 3.83419 8.84128
threshold=inf inf 1.0000000180025095e-35 1349.5000000000002 2.0500000000000003
decision_type=8 8 10 10 2
left_child=1 2 -1 -4 -5
right_child=-2 -3 3 4 -6
leaf_value=-0.10159885383879824 -0.10148589543118103 -0.10199741098640827 0.0037688316174022997 -0.018743100279177558 0.043434346805998336
leaf_weight=11.698188465554265 67.725879454053938 30.837457705056295 3156.7677301038057 173.08662717044353 26.35066588409245
leaf_count=1374 15488 4645 24304 1114 162
internal_value=0 0.0016076 0.00255623 0.00291927 -0.0105279
internal_weight=0 3398.74 3367.9 3356.21 199.437
internal_count=47087 31599 26954 25580 1276
is_linear=0
shrinkage=0.1


Tree=51
num_leaves=6
num_cat=0
split_feature=8 7 0 7 8
split_gain=63.6846 29.3184 3.1613 6.8829 4.80355
threshold=inf 1.0000000180025095e-35 345.65000000000003 279.75000000000006 60.550000000000004
decision_type=8 10 2 10 8
left_child=1 -1 -3 4 -4
right_child=-2 2 3 -5 -6
leaf_value=-0.10188247218602818 -0.1013484726320483 0.0015361057574375127 -0.16961854562189949 0.019980385072472382 -0.022863540835001389
leaf_weight=27.23877661023289 61.35978029621765 3171.9942694259807 2.8893375201150748 176.06368856085464 9.7789149302989244
leaf_count=4620 15488 25424 36 1447 72
internal_value=0 0.00144674 0.00228423 0.0148578 -0.0563354
internal_weight=0 3387.96 3360.73 188.732 12.6683
internal_count=47087 31599 26979 1555 108
is_linear=0
shrinkage=0.1


Tree=52
num_leaves=6
num_cat=0
split_feature=5 8 3 3 3
split_gain=57.7631 28.6063 11.105 3.63167 64.7213
threshold=inf inf 1.0000000180025095e-35 130.50000000000003 128.50000000000003
decision_type=8 8 10 10 10
left_child=1 2 -1 4 -4
right_child=-2 -3 3 -5 -6
leaf_value=-0.10147144210819636 -0.10104376640866042 -0.10224207982578917 0.0036260345481654633 0.0034548328461066953 -0.19843155630003784
leaf_weight=10.314223828259854 56.047218137886375 26.466538204229437 267.04554928187281 3059.055442490615 16.852846929803491
leaf_count=1374 15568 4565 2045 23423 112
internal_value=0 0.00131374 0.00213108 0.00245074 -0.00836858
internal_weight=0 3379.73 3353.27 3342.95 283.898
internal_count=47087 31519 26954 25580 2157
is_linear=0
shrinkage=0.1


Tree=53
num_leaves=6
num_cat=0
split_feature=5 7 0 0 7
split_gain=52.163 23.0603 2.96102 3.85371 12.9194
threshold=inf 1.0000000180025095e-35 301.65000000000003 319.05000000000007 271.45000000000005
decision_type=8 10 2 2 10
left_child=1 -1 -3 -4 -5
right_child=-2 2 3 4 -6
leaf_value=-0.1018519460075468 -0.10094636109322704 0.014460234787806336 -0.0015658537584238156 -0.088405431861545924 0.0067696660033456568
leaf_weight=21.581135910004377 50.760067601921037 176.41500258538872 1974.2415563818067 14.436403584433718 1183.8508638283238
leaf_count=4565 15568 1464 15647 109 9734
internal_value=0 0.00118663 0.00185063 0.00114944 0.00562304
internal_weight=0 3370.52 3348.94 3172.53 1198.29
internal_count=47087 31519 26954 25490 9843
is_linear=0
shrinkage=0.1


Tree=54
num_leaves=6
num_cat=0
split_feature=8 5 7 1 8
split_gain=48.6424 23.4829 14.479 2.91019 16.7254
threshold=inf inf 1.0000000180025095e-35 3.1500000000000008 21.350000000000005
decision_type=8 8 10 2 10
left_child=1 2 -1 -4 -5
right_child=-2 -3 3 4 -6
leaf_value=-0.10236635368615064 -0.10115138710617032 -0.10151895345921454 0.0014142523170406047 -0.17419042697622927 0.017263856178054753
leaf_weight=13.293399149784817 47.167793587781489 22.14864136185497 3105.0347078582272 4.6605509780347338 217.83781645260751
leaf_count=1388 15488 4645 23870 53 1643
internal_value=0 0.0011094 0.00178979 0.0022059 0.0132535
internal_weight=0 3362.98 3340.83 3327.53 222.498
internal_count=47087 31599 26954 25566 1696
is_linear=0
shrinkage=0.1


Tree=55
num_leaves=6
num_cat=0
split_feature=8 5 8 0 0
split_gain=43.9253 21.1582 2.72033 2.69167 3.27039
threshold=inf inf 528.30000000000007 302.75000000000006 304.25000000000006
decision_type=8 8 8 2 2
left_child=1 2 3 -1 -5
right_child=-2 -3 -4 4 -6
leaf_value=0.010581657004381484 -0.10104411510405427 -0.10137494487329474 0.060883574381564935 -0.012788930934507368 0.0013942477549053034
leaf_weight=295.7878068969585 42.722192470915616 20.067940617678687 7.7258370690979055 172.37756599043496 2858.6521122182021
leaf_count=2458 15488 4645 77 1373 23046
internal_value=0 0.000997748 0.00161385 0.00147621 0.000587637
internal_weight=0 3354.61 3334.54 3326.82 3031.03
internal_count=47087 31599 26954 26877 24419
is_linear=0
shrinkage=0.1


Tree=56
num_leaves=6
num_cat=0
split_feature=8 5 1 1 8
split_gain=39.674 19.0712 2.40703 4.34374 14.9178
threshold=inf inf 4.5500000000000007 3.1500000000000008 16.150000000000002
decision_type=8 8 2 2 10
left_child=1 2 3 -1 -5
right_child=-2 -3 -4 4 -6
leaf_value=0.00074722626419820577 -0.10094663273906018 -0.10124452957920227 -0.032673156589759583 -0.2969074867701324 0.018315222023331596
leaf_weight=3109.8807484188583 38.692070527933538 18.180424158927053 20.538421056582592 1.5126911508850742 198.90795443474781
leaf_count=25171 15488 4645 163 65 1555
internal_value=0 0.000897564 0.00145508 0.00166682 0.015936
internal_weight=0 3349.02 3330.84 3310.3 200.421
internal_count=47087 31599 26954 26791 1620
is_linear=0
shrinkage=0.1


Tree=57
num_leaves=6
num_cat=0
split_feature=5 7 7 1 7
split_gain=34.6976 17.6795 4.53847 5.24076 3.52576
threshold=inf 316.25000000000006 307.55000000000007 1.5500000000000003 306.05000000000007
decision_type=8 8 10 2 10
left_child=1 2 4 -4 -1
right_child=-2 -3 3 -5 -6
leaf_value=0.0012816727291892203 -0.10063712893980384 -0.093858413228462612 0.067660574840489249 -0.071338001357745762 -0.042434367089120073
leaf_weight=3284.9515392410103 34.081244653905742 19.625319065409712 18.341296832310039 3.183276090072467 18.553061349550262
leaf_count=26596 15568 4594 156 27 146
internal_value=0 0.000775815 0.00133438 0.0471039 0.00103616
internal_weight=0 3344.65 3325.03 21.5246 3303.5
internal_count=47087 31519 26925 183 26742
is_linear=0
shrinkage=0.1


Tree=58
num_leaves=6
num_cat=0
split_feature=8 7 5 7 0
split_gain=33.7263 17.0879 10.1301 2.6628 12.5122
threshold=inf 1.0000000180025095e-35 inf 290.35000000000008 319.05000000000007
decision_type=8 10 8 10 2
left_child=1 -1 3 -3 -5
right_child=-2 2 -4 4 -6
leaf_value=-0.10136986574675311 -0.10089268445328968 0.0046284604269914622 -0.10147610612808618 -0.0088766160470992866 0.0079081183159659309
leaf_weight=16.300785852479748 32.957126902299933 1527.5318802054971 9.5687348205829021 953.59107833448797 831.28732242528349
leaf_count=4620 15488 11747 1413 7194 6625
internal_value=0 0.000765653 0.00126683 0.00156363 -0.00105931
internal_weight=0 3338.28 3321.98 3312.41 1784.88
internal_count=47087 31599 26979 25566 13819
is_linear=0
shrinkage=0.1


Tree=59
num_leaves=6
num_cat=0
split_feature=8 7 5 7 7
split_gain=30.4718 15.4108 9.12824 2.43239 8.26212
threshold=inf 1.0000000180025095e-35 inf 284.75000000000006 290.35000000000008
decision_type=8 10 8 10 10
left_child=1 -1 3 -3 -5
right_child=-2 2 -4 4 -6
leaf_value=-0.10123968783093862 -0.100809028310599 -0.0037358697904971341 -0.10133444688277321 0.011257834327462185 -0.00095037565331653319
leaf_weight=14.76756199041847 29.844330496969633 718.86865807883441 8.6696370199788344 803.86853566206992 1785.9818124715239
leaf_count=4620 15488 5412 1413 6335 13819
internal_value=0 0.000688221 0.00114196 0.00141048 0.00283895
internal_weight=0 3332.16 3317.39 3308.72 2589.85
internal_count=47087 31599 26979 25566 20154
is_linear=0
shrinkage=0.1


Tree=60
num_leaves=6
num_cat=0
split_feature=8 7 3 3 7
split_gain=27.5352 13.9025 9.49315 4.10675 19.12
threshold=inf 1.0000000180025095e-35 8.5000000000000018 407.50000000000006 297.85000000000008
decision_type=8 10 10 10 10
left_child=1 -1 -3 -4 -5
right_child=-2 2 3 4 -6
leaf_value=-0.10112184675108837 -0.10073309513009175 -0.065886474844243245 0.005529449816636698 0.0024066035247850832 -0.026966121645328828
leaf_weight=13.377022154279983 27.023588156793267 21.066228182404302 1413.2978155240417 1622.236997531727 256.6797505505383
leaf_count=4620 15488 1513 11723 11952 1791
internal_value=0 0.000618184 0.00102895 0.00145713 -0.00160602
internal_weight=0 3326.66 3313.28 3292.21 1878.92
internal_count=47087 31599 26979 25466 13743
is_linear=0
shrinkage=0.1


Tree=61
num_leaves=6
num_cat=0
split_feature=3 7 3 3 7
split_gain=22.7519 13.0139 3.65467 41.9991 32.9638
threshold=1.0000000180025095e-35 1.0000000180025095e-35 234.50000000000003 225.50000000000003 285.65000000000003
decision_type=10 10 10 10 10
left_child=-1 -2 3 -3 -5
right_child=1 2 -4 4 -6
leaf_value=-0.10054310386392636 -0.10098354280912181 0.0043866568572438073 0.0026896613103010096 -0.21319251828667751 -0.042644246113160034
leaf_weight=22.437228759517893 12.589533433201721 649.12177751085255 2554.0194380396279 12.865154318278654 95.15358633059077
leaf_count=15426 4670 5442 20614 125 810
internal_value=0 0.000494942 0.00088078 -0.00522102 -0.0629568
internal_weight=0 3323.75 3311.16 757.141 108.019
internal_count=47087 31661 26991 6377 935
is_linear=0
shrinkage=0.1


Tree=62
num_leaves=6
num_cat=0
split_feature=5 7 7 1 7
split_gain=22.3043 10.5531 2.57778 3.3765 3.34055
threshold=inf 1.0000000180025095e-35 307.55000000000007 1.6500000000000001 316.25000000000006
decision_type=8 10 10 2 8
left_child=1 -1 -3 4 -4
right_child=-2 2 3 -5 -6
leaf_value=-0.10096496578107371 -0.10050481187392223 0.00057812327722092476 0.062177227371654153 -0.074578619651402819 -0.052155505643537207
leaf_weight=10.218247099081053 22.006048305833247 3284.7148255655775 18.526228535920389 2.5841170883504665 2.9643883295357218
leaf_count=4565 15568 26742 163 23 26
internal_value=0 0.000503723 0.000817081 0.03342 0.0464062
internal_weight=0 3319.01 3308.79 24.0747 21.4906
internal_count=47087 31519 26954 212 189
is_linear=0
shrinkage=0.1


Tree=63
num_leaves=6
num_cat=0
split_feature=5 7 0 7 0
split_gain=20.1642 9.52758 2.21438 5.56235 4.59336
threshold=inf 1.0000000180025095e-35 345.65000000000003 301.25000000000006 345.15000000000003
decision_type=8 10 2 10 2
left_child=1 -1 4 -4 -3
right_child=-2 2 3 -5 -6
leaf_value=-0.10087309094998853 -0.10045718232558239 0.00028604572324402323 0.0002111547672518047 0.038515092127939431 -0.083558651752471513
leaf_weight=9.2538452126318571 19.920856761629693 3117.2712275361409 129.49500262620859 53.605242745601572 6.5476875847671172
leaf_count=4565 15568 25346 1100 451 57
internal_value=0 0.000453249 0.000736794 0.0114252 0.000110302
internal_weight=0 3316.17 3306.92 183.1 3123.82
internal_count=47087 31519 26954 1551 25403
is_linear=0
shrinkage=0.1


Tree=64
num_leaves=6
num_cat=0
split_feature=3 5 3 3 3
split_gain=18.252 10.2748 3.60918 16.5316 23.7824
threshold=1.0000000180025095e-35 inf 142.50000000000003 137.50000000000003 138.50000000000003
decision_type=10 8 10 10 10
left_child=-1 2 3 -2 -5
right_child=1 -3 -4 4 -6
leaf_value=-0.10053290801981916 -0.0023846208383839361 -0.10068169018451074 0.001862251279554195 -0.19005199235814604 -0.0056865387259770611
leaf_weight=18.010574055544566 326.32359509612434 10.024021651246583 2948.3384067474399 11.857405703864062 17.068219322361983
leaf_count=15426 2679 4716 24026 96 144
internal_value=0 0.000408183 0.000714919 -0.00880719 -0.0812631
internal_weight=0 3313.61 3303.59 355.249 28.9256
internal_count=47087 31661 26945 2919 240
is_linear=0
shrinkage=0.1


Tree=65
num_leaves=6
num_cat=0
split_feature=8 7 5 8 0
split_gain=19.7619 8.86881 5.82848 2.31377 2.1349
threshold=inf 1.0000000180025095e-35 inf 528.30000000000007 300.25000000000006
decision_type=8 10 8 8 2
left_child=1 -1 3 4 -3
right_child=-2 2 -4 -5 -6
leaf_value=-0.1007767716692356 -0.10078169036198764 0.029753373663753753 -0.10091772762621498 0.057340291186504223 0.00055603069224809067
leaf_weight=8.6297830507974123 19.390743970056064 25.237039154861122 5.6312781051965421 7.2486193552613249 3261.0787787428126
leaf_count=4620 15488 209 1413 75 25282
internal_value=0 0.000466108 0.000730932 0.000904731 0.00078025
internal_weight=0 3307.83 3299.2 3293.56 3286.32
internal_count=47087 31599 26979 25566 25491
is_linear=0
shrinkage=0.1


Tree=66
num_leaves=6
num_cat=0
split_feature=3 5 7 3 7
split_gain=15.4391 8.38487 5.63688 3.65422 17.0844
threshold=1.0000000180025095e-35 inf 1.0000000180025095e-35 407.50000000000006 297.95000000000005
decision_type=10 8 10 10 10
left_child=-1 2 -2 4 -4
right_child=1 -3 3 -5 -6
leaf_value=-0.10050502007641271 -0.10096803205947572 -0.10055797999919654 -0.0015159069374833852 -0.002134894304114759 0.024285481698741805
leaf_weight=15.249326825491151 5.4553024066553908 8.2146707095671427 1084.2342279162258 1872.5852494630963 336.21459144633263
leaf_count=15426 1371 4716 8989 13728 2857
internal_value=0 0.000346839 0.000598137 0.000766395 0.00459118
internal_weight=0 3306.7 3298.49 3293.03 1420.45
internal_count=47087 31661 26945 25574 11846
is_linear=0
shrinkage=0.1


Tree=67
num_leaves=6
num_cat=0
split_feature=8 7 7 7 1
split_gain=16.8248 7.23675 2.02861 6.52884 13.367
threshold=inf 1.0000000180025095e-35 290.75000000000006 284.75000000000006 1.8500000000000003
decision_type=8 10 10 10 2
left_child=1 -1 3 4 -3
right_child=-2 2 -4 -5 -6
leaf_value=-0.10063558549491258 -0.10074177138050644 0.0037117723496677829 -0.0017579208579947992 0.0091292235049293142 -0.028518543479191895
leaf_weight=7.0742951888823873 16.530311510869069 551.80121443571988 1721.0303229127312 852.92384774930542 167.8107704409631
leaf_count=4620 15488 4429 14134 7103 1313
internal_value=0 0.00039738 0.000614391 0.00321072 -0.00380422
internal_weight=0 3300.64 3293.57 1572.54 719.612
internal_count=47087 31599 26979 12845 5742
is_linear=0
shrinkage=0.1


Tree=68
num_leaves=6
num_cat=0
split_feature=3 5 3 3 1
split_gain=13.184 7.20949 3.47688 46.3321 20.1544
threshold=1.0000000180025095e-35 inf 130.50000000000003 128.50000000000003 3.1500000000000008
decision_type=10 8 10 10 2
left_child=-1 2 3 -2 -5
right_child=1 -3 -4 4 -6
leaf_value=-0.10047723217078625 0.00070321166358777807 -0.10052133196802404 0.0015072146050518602 -0.21821913295407913 0.031943802609818682
leaf_weight=13.032836199563461 261.88877835532185 7.0773854503931934 3012.7786234425148 14.47529813431902 4.1420236473786636
leaf_count=15426 2157 4716 24654 109 25
internal_value=0 0.000299104 0.000515772 -0.0101328 -0.162562
internal_weight=0 3300.36 3293.28 280.506 18.6173
internal_count=47087 31661 26945 2291 134
is_linear=0
shrinkage=0.1


Tree=69
num_leaves=6
num_cat=0
split_feature=3 7 5 3 3
split_gain=11.9222 6.61096 4.49569 3.46983 29.3908
threshold=1.0000000180025095e-35 1.0000000180025095e-35 inf 811.50000000000011 813.50000000000011
decision_type=10 10 8 10 10
left_child=-1 -2 3 -3 -5
right_child=1 2 -4 4 -6
leaf_value=-0.10043206444131175 -0.10056724894410891 0.0026352241347681656 -0.10065656515565816 -0.15298397027618887 -0.0024487023807856162
leaf_weight=11.797631937486583 6.4882847155677146 2365.9715815098025 4.3899364494718602 13.157715662382541 908.08780106715858
leaf_count=15426 4670 18940 1417 94 6540
internal_value=0 0.00027407 0.000472846 0.000607901 -0.00459873
internal_weight=0 3298.1 3291.61 3287.22 921.246
internal_count=47087 31661 26991 25574 6634
is_linear=0
shrinkage=0.1


Tree=70
num_leaves=6
num_cat=0
split_feature=8 3 7 3 3
split_gain=13.6566 6.16608 4.33624 3.14306 8.1405
threshold=inf 1.0000000180025095e-35 1.0000000180025095e-35 1349.5000000000002 1379.5000000000002
decision_type=8 10 10 10 10
left_child=1 -1 -3 -4 -5
right_child=-2 2 3 4 -6
leaf_value=-0.10065157994094145 -0.10073426305161955 -0.10069251966710019 0.0014317784886269664 -0.10761022029676 -0.0072914345138095932
leaf_weight=6.035214670788263 13.423932423640506 4.2275484435376702 3085.3255563830025 8.4510781033895892 188.69695814326406
leaf_count=4674 15488 1365 24286 51 1223
internal_value=0 0.000333783 0.000519219 0.000649572 -0.0115918
internal_weight=0 3292.74 3286.7 3282.47 197.148
internal_count=47087 31599 26925 25560 1274
is_linear=0
shrinkage=0.1


Tree=71
num_leaves=6
num_cat=0
split_feature=8 5 7 0 7
split_gain=12.3446 5.25281 3.67593 1.99025 16.5908
threshold=inf inf 1.0000000180025095e-35 303.45000000000005 292.55000000000007
decision_type=8 8 10 2 8
left_child=1 2 -1 4 -4
right_child=-2 -3 3 -5 -6
leaf_value=-0.10065850422840512 -0.10066478670749544 -0.10046445715902555 0.0094007441701291147 -0.00030312348489239173 -0.233943765599089
leaf_weight=3.5911929761350612 12.154433395218801 5.1652373408433041 362.95524354698136 2915.4975289814174 2.8234694325365117
leaf_count=1388 15488 4645 2895 22634 37
internal_value=0 0.000300099 0.000458546 0.000569215 0.00752233
internal_weight=0 3290.03 3284.87 3281.28 365.779
internal_count=47087 31599 26954 25566 2932
is_linear=0
shrinkage=0.1


Tree=72
num_leaves=6
num_cat=0
split_feature=8 5 7 8 7
split_gain=11.1598 4.74726 3.32067 1.94474 1.86503
threshold=inf inf 1.0000000180025095e-35 528.30000000000007 290.35000000000008
decision_type=8 8 10 10 10
left_child=1 2 -1 4 -4
right_child=-2 -3 3 -5 -6
leaf_value=-0.10059534239295603 -0.10060183121084774 -0.10042011502015043 0.002990007207069015 0.053625078066666589 -0.0017997326766011367
leaf_weight=3.2513823069166383 11.004318534862248 4.6756588441494378 1504.7980672731064 6.8798155859112731 1768.1742389923893
leaf_count=1388 15488 4645 11738 75 13753
internal_value=0 0.000270528 0.000413929 0.000514062 0.000402422
internal_weight=0 3287.78 3283.1 3279.85 3272.97
internal_count=47087 31599 26954 25566 25491
is_linear=0
shrinkage=0.1


Tree=73
num_leaves=6
num_cat=0
split_feature=8 3 7 3 3
split_gain=10.0895 5.18901 3.26876 2.95753 7.09964
threshold=inf 1.0000000180025095e-35 316.25000000000006 1739.5000000000002 1654.5000000000002
decision_type=8 10 8 10 10
left_child=1 -1 3 4 -3
right_child=-2 2 -4 -5 -6
leaf_value=-0.10062111697981838 -0.10054479080434094 0.0006891476715957755 -0.071776555059376662 -0.017636940072072654 0.065539505576920121
leaf_weight=5.092545954277738 9.9624808228545572 3170.353397410363 6.2627494968764941 87.154661788605154 16.97184157371521
leaf_count=4674 15488 24904 1393 499 129
internal_value=0 0.000242887 0.000399454 0.000537499 0.00103446
internal_weight=0 3285.84 3280.74 3274.48 3187.33
internal_count=47087 31599 26925 25532 25033
is_linear=0
shrinkage=0.1


Tree=74
num_leaves=6
num_cat=0
split_feature=8 3 3 7 3
split_gain=9.1227 4.75006 3.29495 15.6567 20.0868
threshold=inf 8.5000000000000018 407.50000000000006 295.35000000000008 426.50000000000006
decision_type=8 10 10 8 10
left_child=1 -1 -3 4 -4
right_child=-2 2 3 -5 -6
leaf_value=-0.051745893327986847 -0.10049311770833361 0.0041712758361005216 -0.047847448310039231 -0.018956248950135618 0.0055245664068845355
leaf_weight=17.496839516359614 9.0188250149367359 1397.0007645188307 74.360707279294729 431.42486356839072 1363.5725092715584
leaf_count=4777 15488 12243 595 3840 10144
internal_value=0 0.000218908 0.000497267 -0.00224838 0.00276451
internal_weight=0 3283.86 3266.36 1869.36 1437.93
internal_count=47087 31599 26822 14579 10739
is_linear=0
shrinkage=0.1


Tree=75
num_leaves=6
num_cat=0
split_feature=3 3 3 3 3
split_gain=7.24722 3.02805 34.641 20.4715 11.791
threshold=1.0000000180025095e-35 234.50000000000003 225.50000000000003 226.50000000000003 201.50000000000003
decision_type=10 10 10 10 10
left_child=-1 2 4 -4 -2
right_child=1 -3 3 -5 -6
leaf_value=-0.10033747112936919 -0.00463910224620277 0.0018273399902319462 -0.1529002713886323 -0.037763623746770024 0.026043165886655773
leaf_weight=7.1897292578360057 471.48953916081518 2530.7863644783938 18.550621248868993 92.173200038901996 170.55635575891938
leaf_count=15426 4666 24167 209 942 1677
internal_value=0 0.000171141 -0.00539694 -0.0570536 0.00351149
internal_weight=0 3283.56 752.77 110.724 642.046
internal_count=47087 31661 7494 1151 6343
is_linear=0
shrinkage=0.1


Tree=76
num_leaves=6
num_cat=0
split_feature=8 3 3 3 3
split_gain=7.97616 4.02586 3.06427 21.0568 8.95545
threshold=inf 1.0000000180025095e-35 811.50000000000011 813.50000000000011 937.50000000000011
decision_type=8 10 10 10 10
left_child=1 -1 -3 -4 -5
right_child=-2 2 3 4 -6
leaf_value=-0.1004825625147299 -0.10045901431655482 0.0022359205221163599 -0.12418739700625242 -0.018606651272983919 0.0035447225301086399
leaf_weight=3.9662894091597982 7.8902925482689161 2357.8130362634547 14.484432196593842 253.44898290839046 652.06423770386027
leaf_count=4674 15488 19916 108 1963 4938
internal_value=0 0.000204187 0.000326023 -0.00456875 -0.00265535
internal_weight=0 3281.78 3277.81 919.998 905.513
internal_count=47087 31599 26925 7009 6901
is_linear=0
shrinkage=0.1


Tree=77
num_leaves=6
num_cat=0
split_feature=8 3 3 3 3
split_gain=7.21293 3.89975 8.99242 7.16859 13.9746
threshold=inf 1349.5000000000002 1379.5000000000002 1117.5000000000002 1111.5000000000002
decision_type=8 8 10 10 8
left_child=1 3 -3 4 -1
right_child=-2 2 -4 -5 -6
leaf_value=0.00034009942200286214 -0.10041539191196439 -0.09558619999331841 -0.0078745639180078601 0.021351083557936756 -0.11385403381014532
leaf_weight=2904.251048450853 7.1423758027522117 12.463124131798393 188.07424228190212 164.88850086479215 10.756131596222984
leaf_count=24139 15488 4732 1319 1317 92
internal_value=0 0.00018636 -0.0133257 0.00106616 -8.12689e-05
internal_weight=0 3280.43 200.537 3079.9 2915.01
internal_count=47087 31599 6051 25548 24231
is_linear=0
shrinkage=0.1


Tree=78
num_leaves=6
num_cat=0
split_feature=7 3 3 3 1
split_gain=5.53905 3.58279 2.8093 34.1969 13.682
threshold=1.0000000180025095e-35 1.0000000180025095e-35 130.50000000000003 128.50000000000003 3.2500000000000004
decision_type=10 10 10 10 2
left_child=-1 -2 3 -3 -5
right_child=1 2 -4 4 -6
leaf_value=-0.10025699498380024 -0.10037052598911414 0.00038502712193509182 0.0011458741984486304 -0.17300768124433702 0.043161638108055594
leaf_weight=5.5044467068219083 3.5425770556903435 260.73039561451878 2995.7245071093203 16.587411417247498 3.5555365486652581
leaf_count=15462 4634 2179 24684 105 23
internal_value=0 0.000140618 0.000249289 -0.00931346 -0.13485
internal_weight=0 3280.14 3276.6 280.873 20.1429
internal_count=47087 31625 26991 2307 128
is_linear=0
shrinkage=0.1


Tree=79
num_leaves=6
num_cat=0
split_feature=8 5 3 3 8
split_gain=6.24668 3.68031 3.16865 6.00329 5.74151
threshold=inf inf 1739.5000000000002 1654.5000000000002 26.550000000000004
decision_type=8 8 8 10 10
left_child=1 2 3 -1 -5
right_child=-2 -3 -4 4 -6
leaf_value=0.00049168074228296403 -0.10039094419384803 -0.10042912420973696 -0.018211896366749396 0.087623675579143898 -0.074562356853747999
leaf_weight=3167.4728804508923 6.1891798470896893 3.632754624093649 90.126686374176643 13.580672038253399 2.6006899704225352
leaf_count=24945 15488 4645 1878 110 21
internal_value=0 0.000166974 0.000278602 0.000802053 0.0615568
internal_weight=0 3277.41 3273.78 3183.65 16.1814
internal_count=47087 31599 26954 25076 131
is_linear=0
shrinkage=0.1


Tree=80
num_leaves=6
num_cat=0
split_feature=8 7 3 3 3
split_gain=5.64928 3.13895 2.81174 6.56107 5.91744
threshold=inf 1.0000000180025095e-35 1349.5000000000002 1379.5000000000002 1011.5000000000001
decision_type=8 10 8 10 10
left_child=1 -1 4 -4 -3
right_child=-2 2 3 -5 -6
leaf_value=-0.100360797966526 -0.10035371030418666 -0.00054537497014679694 -0.084244252925146867 -0.0067464063965868119 0.013497039331829009
leaf_weight=3.104064659215509 5.6021737007249603 2735.5888241485227 11.595397841636439 188.75375218433328 337.06444473937154
leaf_count=4620 15488 21736 1470 1223 2550
internal_value=0 0.000151296 0.000246621 -0.0112317 0.000995052
internal_weight=0 3276.11 3273 200.349 3072.65
internal_count=47087 31599 26979 2693 24286
is_linear=0
shrinkage=0.1


Tree=81
num_leaves=6
num_cat=0
split_feature=8 7 1 8 1
split_gain=5.10922 2.83814 2.02898 11.5519 16.0517
threshold=inf 1.0000000180025095e-35 3.1500000000000008 21.350000000000005 3.7500000000000004
decision_type=8 10 2 10 2
left_child=1 -1 -3 4 -4
right_child=-2 2 3 -5 -6
leaf_value=-0.1003261836255406 -0.10031998803736578 -0.00043871009570679707 -0.024365650512809468 0.013172794492598783 -0.41541053459353505
leaf_weight=2.8095936453319146 5.0706736902575349 3056.1176540795423 3.5489633664110434 210.7382279138983 1.4905505360948152
leaf_count=4620 15488 25193 58 1678 50
internal_value=0 0.000136715 0.000222984 0.00959474 -0.140028
internal_weight=0 3274.7 3271.9 215.778 5.03951
internal_count=47087 31599 26979 1786 108
is_linear=0
shrinkage=0.1


Tree=82
num_leaves=6
num_cat=0
split_feature=5 8 1 1 8
split_gain=4.69036 3.07237 2.04394 3.47425 4.59317
threshold=inf inf 4.5500000000000007 4.7500000000000009 124.25000000000001
decision_type=8 8 2 2 8
left_child=1 2 -1 4 -4
right_child=-2 -3 3 -5 -6
leaf_value=0.00041874046318825806 -0.10027406659080938 -0.10042860084159702 -0.086286580887010425 0.040252411554038595 0.039941005811566503
leaf_weight=3250.0911541451496 4.6595724430662804 3.0356748121484989 11.591618955237209 5.1082367077469817 3.8369095027446756
leaf_count=26791 15568 4565 94 39 30
internal_value=0 0.00012669 0.000220023 -0.0312284 -0.0548951
internal_weight=0 3273.66 3270.63 20.5368 15.4285
internal_count=47087 31519 26954 163 124
is_linear=0
shrinkage=0.1


Tree=83
num_leaves=6
num_cat=0
split_feature=5 0 0 0 0
split_gain=4.2424 1.92599 6.4596 4.16907 4.26644
threshold=inf 319.05000000000007 311.95000000000005 318.55000000000007 312.35000000000008
decision_type=8 2 2 2 2
left_child=1 2 -1 4 -4
right_child=-2 -3 3 -5 -6
leaf_value=0.002352272534886778 -0.1002478742722664 0.0033755388289008017 -0.035758811564090422 -0.038529906042182191 -0.005144160371280267
leaf_weight=1374.3981836178718 4.2172011206057496 1165.9754819742157 49.019072681971011 45.674162528506713 637.79430127851083
leaf_count=13092 15568 11453 492 447 6035
internal_value=0 0.000114625 -0.00169 -0.0092747 -0.00732918
internal_weight=0 3272.86 2106.89 732.488 686.813
internal_count=47087 31519 20066 6974 6527
is_linear=0
shrinkage=0.1


Tree=84
num_leaves=6
num_cat=0
split_feature=8 3 3 3 3
split_gain=4.04506 2.97446 17.7927 6.91304 6.61396
threshold=inf 811.50000000000011 813.50000000000011 937.50000000000011 723.50000000000011
decision_type=8 8 10 10 10
left_child=1 4 -3 -4 -1
right_child=-2 2 3 -5 -6
leaf_value=0.00065845724583841179 -0.10026946372534136 -0.10318065619314246 -0.016647773232052673 0.0027602527677448065 0.022991775983461086
leaf_weight=2209.9088629887701 4.0193321603801442 17.989448037522379 256.18276058230549 647.14550180241349 141.0681614280038
leaf_count=18833 15488 4782 1963 4938 1083
internal_value=0 0.000111171 -0.00470495 -0.00274384 0.00199855
internal_weight=0 3272.29 921.318 903.328 2350.98
internal_count=47087 31599 11683 6901 19916
is_linear=0
shrinkage=0.1


Tree=85
num_leaves=6
num_cat=0
split_feature=5 8 7 8 2
split_gain=3.67257 2.51202 2.28142 15.3376 6.4307
threshold=inf inf 271.45000000000005 27.550000000000004 1.2500000000000002
decision_type=8 8 10 10 2
left_child=1 2 3 4 -1
right_child=-2 -3 -4 -5 -6
leaf_value=0.028910211820647992 -0.1002328038884671 -0.10035032373513285 0.00054624265848309504 -0.088054146575404071 -0.11563650131423638
leaf_weight=37.365348013627226 3.6520627012214382 2.4874626504970356 3207.1153575902572 21.095540490816347 3.3540495395427561
leaf_count=922 15568 4565 25140 570 322
internal_value=0 0.000103036 0.000179476 -0.0188493 0.0170038
internal_weight=0 3271.42 3268.93 61.8149 40.7194
internal_count=47087 31519 26954 1814 1244
is_linear=0
shrinkage=0.1


Tree=86
num_leaves=6
num_cat=0
split_feature=5 3 3 1 2
split_gain=3.32209 2.78823 14.9351 9.2504 10.0874
threshold=inf 407.50000000000006 347.50000000000006 2.3500000000000001 1.6500000000000001
decision_type=8 8 10 2 2
left_child=1 2 -1 -4 -5
right_child=-2 -3 3 4 -6
leaf_value=0.00015198310545417725 -0.10021046732171922 -0.0024370512418481569 0.044106367759528836 -0.1625015254370169 0.024658990424077033
leaf_weight=1272.5406667926582 3.305222109775058 1867.0671274463239 118.87036156622344 4.6855563231511024 7.4718554764549481
leaf_count=11177 15568 19139 1091 43 69
internal_value=0 9.44895e-05 0.00346202 0.035609 -0.0474743
internal_weight=0 3270.64 1403.57 131.028 12.1574
internal_count=47087 31519 12380 1203 112
is_linear=0
shrinkage=0.1


Tree=87
num_leaves=6
num_cat=0
split_feature=8 5 1 8 0
split_gain=3.20778 2.06633 1.83363 8.79675 12.1585
threshold=inf inf 3.1500000000000008 21.350000000000005 302.95000000000005
decision_type=8 8 2 10 2
left_child=1 2 -1 4 -4
right_child=-2 -3 3 -5 -6
leaf_value=-0.00046955572869220838 -0.100226204418423 -0.10027269810975584 0.019848416649718745 0.012316314306678495 -0.28452130279943416
leaf_weight=3053.3269446041522 3.1903228173396192 2.0498752613057141 2.8938127162327865 209.23346670177125 2.4015945701030432
leaf_count=25171 15488 4645 30 1673 80
internal_value=0 9.53698e-05 0.00015833 0.00909485 -0.118192
internal_weight=0 3269.91 3267.86 214.529 5.29541
internal_count=47087 31599 26954 1783 110
is_linear=0
shrinkage=0.1


Tree=88
num_leaves=6
num_cat=0
split_feature=7 8 7 7 8
split_gain=2.9781 2.12478 1.89843 2.95101 12.6737
threshold=1.0000000180025095e-35 inf 307.55000000000007 305.65000000000003 29.050000000000004
decision_type=10 8 10 10 10
left_child=-1 2 3 -2 -5
right_child=1 -3 -4 4 -6
leaf_value=-0.10023230777829305 0.00021051951165870187 -0.10027705930776534 0.028889913867668648 -0.11817095107124842 0.029312362482115519
leaf_weight=2.961676592603907 3220.4613477819294 2.1078908372364813 22.829842471102893 10.359955721723965 13.315405352710512
leaf_count=15462 26583 4646 212 77 107
internal_value=0 8.9384e-05 0.000154143 -4.80785e-05 -0.035224
internal_weight=0 3269.07 3266.97 3244.14 23.6754
internal_count=47087 31625 26979 26767 184
is_linear=0
shrinkage=0.1


Tree=89
num_leaves=6
num_cat=0
split_feature=3 8 8 8 3
split_gain=2.8934 12.3423 8.60954 7.63505 7.44709
threshold=22.500000000000004 22.150000000000002 12.15 12.850000000000003 29.500000000000004
decision_type=10 10 8 8 10
left_child=1 2 -1 -4 -2
right_child=4 -3 3 -5 -6
leaf_value=0.031634376603350306 0.066032363710189543 0.0042796936834462174 -0.57981043813946742 -0.1525903923415608 -1.2046860007291441e-05
leaf_weight=2.6545799229716041 17.164377990178764 32.000959354809311 0.44513081682089328 6.9374630861420883 3211.9207300284506
leaf_count=1490 152 2167 111 12045 31122
internal_value=0 -0.0260663 -0.122816 -0.178352 0.000339017
internal_weight=0 42.0381 10.0372 7.38259 3229.09
internal_count=47087 15813 13646 12156 31274
is_linear=0
shrinkage=0.1


Tree=90
num_leaves=6
num_cat=0
split_feature=3 3 2 0 3
split_gain=2.87661 27.9964 8.94739 9.78665 8.3314
threshold=130.50000000000003 128.50000000000003 1.5500000000000003 320.65000000000003 137.50000000000003
decision_type=10 8 2 2 10
left_child=1 -1 -3 -4 -2
right_child=4 2 3 -5 -6
leaf_value=-8.0697595199534587e-05 0.043906259673916231 -0.14888827529641399 0.045426361524229991 -0.30534027418629361 0.00026732085226823351
leaf_weight=259.49591908317598 44.409308055626752 17.829623801069832 5.1632293453512821 0.94023512697458489 2942.9436322077927
leaf_count=2543 424 13848 1403 379 28490
internal_value=0 -0.00962542 -0.113114 -0.00861066 0.000916048
internal_weight=0 283.429 23.9331 6.10346 2987.35
internal_count=47087 18173 15630 1782 28914
is_linear=0
shrinkage=0.1


Tree=91
num_leaves=6
num_cat=0
split_feature=7 7 1 1 7
split_gain=2.54675 1.83468 10.639 5.32784 4.47559
threshold=1.0000000180025095e-35 284.65000000000003 1.8500000000000003 1.6500000000000001 288.25000000000006
decision_type=10 10 2 2 10
left_child=-1 2 3 -2 -3
right_child=1 4 -4 -5 -6
leaf_value=-0.10022139284426448 -0.00061902413302908842 0.010228148640031125 -0.026552023675195265 0.035236263131360711 -0.00063685739195716974
leaf_weight=2.5332411826220769 489.23707950137032 462.47920406182675 166.17289130593781 45.277723168841476 2103.7359223793319
leaf_count=15462 4665 4546 1562 424 20428
internal_value=0 8.2913e-05 -0.00445228 0.00241821 0.00132122
internal_weight=0 3266.9 700.688 534.515 2566.22
internal_count=47087 31625 6651 5089 24974
is_linear=0
shrinkage=0.1


Tree=92
num_leaves=6
num_cat=0
split_feature=3 3 3 3 1
split_gain=2.57803 28.9763 14.234 9.96449 13.8876
threshold=234.50000000000003 225.50000000000003 226.50000000000003 407.50000000000006 1.4500000000000002
decision_type=10 8 10 10 2
left_child=1 -1 -3 4 -2
right_child=3 2 -4 -5 -6
leaf_value=0.0032653118639776255 0.022736780113040492 -0.12206756081465575 -0.03379018676571504 -0.002163282726943353 -0.0081744862255664075
leaf_weight=636.86944324820433 427.61632288978581 22.676853417242455 93.891759639729571 1867.5818020187653 220.17933589476888
leaf_count=6343 4470 15635 942 17332 2365
internal_value=0 -0.00512472 -0.0509634 0.00154357 0.0122303
internal_weight=0 753.438 116.569 2515.38 647.796
internal_count=47087 22920 16577 24167 6835
is_linear=0
shrinkage=0.1


Tree=93
num_leaves=6
num_cat=0
split_feature=3 7 3 7 1
split_gain=2.635 17.0639 15.7569 22.1429 35.745
threshold=142.50000000000003 296.05000000000007 137.50000000000003 286.55000000000007 1.7500000000000002
decision_type=10 10 8 8 2
left_child=1 2 -1 4 -4
right_child=-2 -3 3 -5 -6
leaf_value=-0.015250823382303068 0.0010053459691222774 0.021543065263907285 0.0099771350891258714 -0.017793295770426088 -0.36474110546276589
leaf_weight=205.88230287030456 2911.7682684160027 125.60243752931274 4.3389056988125976 14.011288377865638 6.1595528123616532
leaf_count=2163 28188 2303 982 13044 407
internal_value=0 -0.0081088 -0.0242741 -0.100069 -0.209874
internal_weight=0 355.994 230.392 24.5097 10.4985
internal_count=47087 18899 16596 14433 1389
is_linear=0
shrinkage=0.1


Tree=94
num_leaves=6
num_cat=0
split_feature=5 8 0 2 1
split_gain=2.31304 1.8938 4.51346 4.7636 9.54617
threshold=inf 3.5500000000000003 301.25000000000006 1.0500000000000003 1.1500000000000001
decision_type=8 10 2 2 2
left_child=1 2 3 -1 -5
right_child=-2 -3 -4 4 -6
leaf_value=-0.079478501476008101 -0.10019862273275902 0.00028548603306907092 -0.0085664461493093671 -0.7103256787976171 0.094007372695673982
leaf_weight=3.0844627894257459 2.3013241608168746 3243.6516998187835 17.683809489661144 0.36455251828738244 0.24786097282049013
leaf_count=63 15568 26791 4540 17 108
internal_value=0 8.99541e-05 -0.029574 -0.130061 -0.384804
internal_weight=0 3265.03 21.3807 3.69688 0.612413
internal_count=47087 31519 4728 188 125
is_linear=0
shrinkage=0.1


Tree=95
num_leaves=6
num_cat=0
split_feature=3 3 1 8 0
split_gain=2.26712 21.2949 8.23759 9.12738 13.9969
threshold=130.50000000000003 128.50000000000003 1.6500000000000001 10.750000000000002 310.95000000000005
decision_type=10 8 2 8 2
left_child=1 2 3 -1 -5
right_child=-2 -3 -4 4 -6
leaf_value=0.038030194084177869 0.00083129627360913451 -0.098340339969041929 0.01736008022967361 -0.19229899107347534 -0.022665160370048867
leaf_weight=23.46919036853069 2983.524232204054 24.150217413814971 131.85332469938658 5.1159635168551167 98.813122845607722
leaf_count=194 28914 15630 1184 144 1021
internal_value=0 -0.00852796 -0.000161596 -0.018296 -0.0310155
internal_weight=0 283.402 259.252 127.398 103.929
internal_count=47087 18173 2543 1359 1165
is_linear=0
shrinkage=0.1


Tree=96
num_leaves=6
num_cat=0
split_feature=8 1 1 8 0
split_gain=2.18523 1.70218 7.11303 17.9829 4.84588
threshold=inf 3.1500000000000008 3.7500000000000004 23.650000000000002 312.05000000000007
decision_type=8 2 2 10 2
left_child=1 -1 4 -4 -3
right_child=-2 2 3 -5 -6
leaf_value=-0.00051605693754773138 -0.10021352601088816 0.047032800433600669 -0.28470105279732444 -0.0028495099789738448 0.0029910741411353272
leaf_weight=3050.0929270825964 2.1735048596528932 57.419233451146283 2.3113693914074238 109.66882251518109 44.225208602287239
leaf_count=29549 15488 534 148 944 424
internal_value=0 8.83304e-05 0.00871766 -0.00866727 0.0278704
internal_weight=0 3263.72 213.625 111.98 101.644
internal_count=47087 31599 2050 1092 958
is_linear=0
shrinkage=0.1


Tree=97
num_leaves=6
num_cat=0
split_feature=7 0 7 7 8
split_gain=2.09366 1.63994 4.52941 4.00327 4.75269
threshold=1.0000000180025095e-35 300.45000000000005 289.15000000000003 283.65000000000003 6.1500000000000012
decision_type=10 2 8 10 10
left_child=-1 2 3 4 -2
right_child=1 -3 -4 -5 -6
leaf_value=-0.10021836469074948 -0.10611369866432954 -0.00017633616366478268 -0.11100036492495929 0.061622896033290554 0.01895089280420156
leaf_weight=2.0822922117567932 3.6131668399393702 3219.3130432517901 2.5148394976113186 18.603256582300673 19.106367382562894
leaf_count=15462 37 31203 56 170 159
internal_value=0 8.52636e-05 0.0192964 0.0272262 -0.000938716
internal_weight=0 3263.15 43.8376 41.3228 22.7195
internal_count=47087 31625 422 366 196
is_linear=0
shrinkage=0.1


Tree=98
num_leaves=6
num_cat=0
split_feature=3 7 0 2 7
split_gain=2.26144 5.8608 7.19279 5.74484 10.8393
threshold=1349.5000000000002 299.05000000000007 331.85000000000008 1.3500000000000003 289.05000000000007
decision_type=8 8 2 2 10
left_child=-1 2 3 4 -2
right_child=1 -3 -4 -5 -6
leaf_value=0.00069363644240064918 -0.010066377003383125 -0.17539006686215186 0.05829775281990271 0.027506863929929126 -0.082669013306265346
leaf_weight=3064.3309050421194 130.73210147074133 2.126736981654175 14.909061880545776 28.299315007860059 24.401722765498562
leaf_count=29974 2010 11797 621 1075 1610
internal_value=0 -0.0102694 -0.00849882 -0.0139279 -0.0214864
internal_weight=0 200.469 198.342 183.433 155.134
internal_count=47087 17113 5316 4695 3620
is_linear=0
shrinkage=0.1


Tree=99
num_leaves=6
num_cat=0
split_feature=3 7 7 3 1
split_gain=2.09444 13.3052 12.3336 14.7557 21.1687
threshold=407.50000000000006 297.95000000000005 297.85000000000008 412.50000000000006 1.2500000000000002
decision_type=8 10 8 10 2
left_child=1 -1 3 4 -2
right_child=2 -3 -4 -5 -6
leaf_value=-0.0024262159909120423 0.022655889453111006 0.020682447337739385 -0.022155822933923604 0.0022739875432057763 -0.17213326965657491
leaf_weight=1070.4693884643966 10.636587031049205 324.74203383974236 264.94963762431234 1581.8044189258944 11.733583803186773
leaf_count=11357 1879 2972 16366 12438 2075
internal_value=0 0.00295243 -0.00216783 0.00113344 -0.0795149
internal_weight=0 1395.21 1869.12 1604.17 22.3702
internal_count=47087 14329 32758 16392 3954
is_linear=0
shrinkage=0.1


Tree=100
num_leaves=6
num_cat=0
split_feature=5 1 7 8 0
split_gain=1.89244 1.6487 5.17321 4.63006 3.25098
threshold=inf 4.5500000000000007 294.65000000000003 46.050000000000004 316.35000000000008
decision_type=8 2 8 10 2
left_child=1 -1 3 -3 -4
right_child=-2 2 4 -5 -6
leaf_value=0.00026299163105458773 -0.10019491421276716 -0.12036621342566745 -0.036982595962803337 0.019842372300106399 -0.21761195340918951
leaf_weight=3240.9115836806159 1.8830190941725948 2.8307247081320446 1.9279430149908869 14.021001048386095 2.0622205587842473
leaf_count=31326 15568 25 35 105 28
internal_value=0 8.26981e-05 -0.0279529 -0.00370986 -0.130338
internal_weight=0 3261.75 20.8419 16.8517 3.99016
internal_count=47087 31519 193 130 63
is_linear=0
shrinkage=0.1


Tree=101
num_leaves=6
num_cat=0
split_feature=3 3 7 3 3
split_gain=1.98068 17.2646 14.3565 13.3725 9.31361
threshold=553.50000000000011 616.50000000000011 285.45000000000005 618.50000000000011 624.50000000000011
decision_type=8 10 8 10 10
left_child=-1 2 -2 -3 -5
right_child=1 3 -4 4 -6
leaf_value=0.0020512655009424911 0.035683509327831119 0.085815700933524947 -0.080619212458413483 -0.061787474970133864 -0.00042322324910265866
leaf_weight=1945.3824609680469 13.648892517214334 17.720153273985488 47.728754236590248 25.248169333361147 1213.5089290625765
leaf_count=19608 1236 140 14756 265 11082
internal_value=0 -0.00296979 -0.0547563 -0.00044007 -0.00167394
internal_weight=0 1317.85 61.3776 1256.48 1238.76
internal_count=47087 27479 15992 11487 11347
is_linear=0
shrinkage=0.1


Tree=102
num_leaves=6
num_cat=0
split_feature=8 7 0 8 8
split_gain=1.82165 1.70362 4.97065 10.2691 8.00024
threshold=inf 281.55000000000007 317.95000000000005 21.150000000000002 5.8500000000000005
decision_type=8 10 2 10 10
left_child=1 2 4 -4 -1
right_child=-2 -3 3 -5 -6
leaf_value=-0.1083453309505495 -0.10020704118859874 0.00099888385836905368 -0.10939753586799668 -0.0131630699525017 0.0025233572627320704
leaf_weight=6.637752685481245 1.8121247614517404 2809.0181888798907 12.49657136621772 98.407393385592513 334.31913040821564
leaf_count=238 15488 23425 1102 1540 5294
internal_value=0 8.21476e-05 -0.00561679 -0.0240067 0.000364952
internal_weight=0 3260.88 451.861 110.904 340.957
internal_count=47087 31599 8174 2642 5532
is_linear=0
shrinkage=0.1


Tree=103
num_leaves=6
num_cat=0
split_feature=3 3 2 0 3
split_gain=2.05196 16.2077 6.68753 6.99899 6.67152
threshold=130.50000000000003 128.50000000000003 1.5500000000000003 326.75000000000006 137.50000000000003
decision_type=10 8 2 2 10
left_child=1 -1 -3 -4 -2
right_child=4 2 3 -5 -6
leaf_value=-0.00076143444586758858 0.04008182048094474 -0.11689604934190197 0.039697268325900113 -0.30333591467976073 0.00022800025121088951
leaf_weight=257.975619202296 42.612793726671953 18.102580850225426 5.5783911724929558 0.66573634206633858 2937.2758996679131
leaf_count=2543 424 13848 1562 220 28490
internal_value=0 -0.00812214 -0.0861154 0.00312206 0.000797916
internal_weight=0 282.322 24.3467 6.24413 2979.89
internal_count=47087 18173 15630 1782 28914
is_linear=0
shrinkage=0.1


Tree=104
num_leaves=6
num_cat=0
split_feature=7 8 8 7 2
split_gain=1.6511 1.60994 2.00053 3.60995 8.08891
threshold=1.0000000180025095e-35 528.30000000000007 197.50000000000003 297.55000000000007 1.6500000000000001
decision_type=10 10 8 10 2
left_child=-1 2 -2 -4 -5
right_child=1 -3 3 4 -6
leaf_value=-0.10020319707287884 0.00028356367868803358 0.049756690007085727 0.0002400928124940602 -0.038189015626637984 -0.31007197585485125
leaf_weight=1.6427180541695623 3203.6573698497377 6.5096503734603166 31.525095877424064 16.490719010547767 1.1720089521559192
leaf_count=15462 26487 76 4003 982 77
internal_value=0 7.56976e-05 -2.37255e-05 -0.0200378 -0.0562304
internal_weight=0 3259.35 3252.85 49.1878 17.6627
internal_count=47087 31625 31549 5062 1059
is_linear=0
shrinkage=0.1


Tree=105
num_leaves=6
num_cat=0
split_feature=0 8 1 5 8
split_gain=1.61112 10.1782 60.8897 13.7314 10.0706
threshold=319.05000000000007 57.750000000000007 2.4500000000000006 1.0000000180025095e-35 157.10000000000005
decision_type=2 8 2 8 8
left_child=1 -1 3 4 -3
right_child=-2 2 -4 -5 -6
leaf_value=-0.00033313020769350395 0.0030184755922489457 -0.52297712322505496 -0.01303012019162258 -0.038819846283588082 -0.10023400909171135
leaf_weight=2032.0641916560526 1158.4090448636962 3.4174708934187938 65.077913133494803 0.9934920030646025 0.67480338470704726
leaf_count=19180 16813 104 2115 6612 2263
internal_value=0 -0.00162609 -0.0390724 -0.372309 -0.45327
internal_weight=0 2102.23 70.1637 5.08577 4.09227
internal_count=47087 30274 11094 8979 2367
is_linear=0
shrinkage=0.1


Tree=106
num_leaves=6
num_cat=0
split_feature=3 3 1 7 3
split_gain=1.91967 35.0983 42.8275 17.5565 9.51323
threshold=49.000000000000007 44.500000000000007 1.7500000000000002 284.45000000000005 44.500000000000007
decision_type=10 8 2 10 10
left_child=1 -1 3 -3 -5
right_child=-2 2 -4 4 -6
leaf_value=0.0087693576168317543 0.00045810616853325436 -0.03132826927701831 -0.006951349965618127 -0.10016805844989447 -0.53582322375958102
leaf_weight=86.354034872198099 3161.5390027504782 1.1197446141204617 6.8870832008046818 0.58046609567099938 3.6731402741934289
leaf_count=831 30690 8712 4216 2601 37
internal_value=0 -0.01371 -0.172039 -0.383632 -0.476373
internal_weight=0 98.6145 12.2604 5.37335 4.25361
internal_count=47087 16397 15566 11350 2638
is_linear=0
shrinkage=0.1


Tree=107
num_leaves=6
num_cat=0
split_feature=3 7 8 3 8
split_gain=1.95572 11.5366 8.11729 6.20122 5.71435
threshold=22.500000000000004 295.75000000000006 20.950000000000003 29.500000000000004 37.650000000000013
decision_type=10 10 10 10 8
left_child=1 -1 -3 4 -2
right_child=3 2 -4 -5 -6
leaf_value=-0.056064367586609813 0.10807059108475586 -0.1454777307611913 0.094866231708246374 8.3822922651188299e-09 -0.01433566148553901
leaf_weight=28.647968273275637 10.121528469549959 1.6313760793427707 10.135198810785367 3203.3909252419217 6.1197152422046193
leaf_count=14391 84 1151 271 31122 68
internal_value=0 -0.0218232 0.0615434 0.000312502 0.0619479
internal_weight=0 40.4145 11.7666 3219.63 16.2412
internal_count=47087 15813 1422 31274 152
is_linear=0
shrinkage=0.1


Tree=108
num_leaves=6
num_cat=0
split_feature=3 5 3 3 7
split_gain=1.83966 15.4926 12.5166 10.3409 8.43674
threshold=811.50000000000011 1.0000000180025095e-35 813.50000000000011 22.500000000000004 303.35000000000008
decision_type=8 8 10 10 10
left_child=1 -1 4 -3 -2
right_child=2 3 -4 -5 -6
leaf_value=0.0019065764539428519 -0.070373361408919893 0.079346045195415604 -0.0021222492783221024 -0.25729237949472011 -0.36910131286154124
leaf_weight=2331.1898959624014 16.507190755730793 1.2067163425090246 906.15015633243092 3.7423253071920044 1.0028164261539121
leaf_count=19739 15403 72 8264 3448 161
internal_value=0 0.00153136 -0.00374045 -0.17521 -0.0874826
internal_weight=0 2336.14 923.66 4.94904 17.51
internal_count=47087 23259 23828 3520 15564
is_linear=0
shrinkage=0.1


Tree=109
num_leaves=6
num_cat=0
split_feature=3 3 2 2 3
split_gain=1.89394 23.5427 10.206 13.8802 15.9416
threshold=234.50000000000003 225.50000000000003 1.4500000000000002 1.1500000000000001 226.50000000000003
decision_type=10 8 2 2 8
left_child=1 -1 3 -3 -5
right_child=-2 2 -4 4 -6
leaf_value=0.0032744096556558844 0.001354897793562821 -0.037634497673792872 0.058818897937455872 -0.33172915828445321 -0.089304035880843041
leaf_weight=633.30837053467258 2507.0977384294856 90.963113429185796 8.7095369276594266 3.3065711149047301 15.098596975470171
leaf_count=6343 24167 9328 2611 45 4593
internal_value=0 -0.00436875 -0.0453627 -0.0536592 -0.132857
internal_weight=0 751.386 118.078 109.368 18.4052
internal_count=47087 22920 16577 13966 4638
is_linear=0
shrinkage=0.1


Tree=110
num_leaves=6
num_cat=0
split_feature=3 3 7 3 3
split_gain=1.84043 11.2247 20.3881 11.9429 9.24258
threshold=142.50000000000003 137.50000000000003 286.65000000000003 138.50000000000003 150.50000000000003
decision_type=10 8 10 8 10
left_child=1 -1 3 -3 -2
right_child=4 2 -4 -5 -6
leaf_value=-0.0011707001723231041 0.044068910459338979 -0.27535975038283739 -0.0026877873240101278 -0.072565806784128911 0.00013152868122284081
leaf_weight=322.5580416736284 48.69328458979362 5.5253891792690419 20.226629634531491 6.1212030272977254 2855.1168758980239
leaf_count=3171 488 78 3453 12197 27700
internal_value=0 -0.0067648 -0.0633772 -0.168776 0.000868305
internal_weight=0 354.431 31.8732 11.6466 2903.81
internal_count=47087 18899 15728 12275 28188
is_linear=0
shrinkage=0.1


Tree=111
num_leaves=6
num_cat=0
split_feature=7 7 2 7 1
split_gain=1.54583 3.23928 2.92305 2.78952 2.65622
threshold=307.55000000000007 306.05000000000007 1.3500000000000003 316.25000000000006 1.7500000000000002
decision_type=10 8 2 8 2
left_child=1 -1 3 -2 -3
right_child=2 4 -4 -5 -6
leaf_value=0.00010908581440042948 0.052237577776269084 -0.053750918842656752 -0.095013678047793593 -0.053517609301071571 0.054622728327441472
leaf_weight=3215.0010173246837 17.493991654526788 17.73817853692481 1.8226302276079867 2.9088619394779007 2.5920659894109113
leaf_count=31213 181 11526 22 29 4116
internal_value=0 -0.000142535 0.0263206 0.0371598 -0.0399334
internal_weight=0 3235.33 22.2255 20.4029 20.3302
internal_count=47087 46855 232 210 15642
is_linear=0
shrinkage=0.1


Tree=112
num_leaves=6
num_cat=0
split_feature=3 0 0 3 7
split_gain=1.78163 6.40443 9.13891 5.43419 4.69836
threshold=1739.5000000000002 355.65000000000003 331.85000000000008 1654.5000000000002 285.75000000000006
decision_type=8 2 2 10 8
left_child=3 2 4 -1 -2
right_child=1 -3 -4 -5 -6
leaf_value=0.00013752130591021677 -0.0015200074582649443 -0.18016507041302735 0.11064779888765819 0.059148892572411897 -0.052589465364075882
leaf_weight=3151.640196038682 55.074373924807333 2.2569369114326028 5.8992701535194092 15.682591888362365 26.771291120578553
leaf_count=30809 1346 455 1605 145 12727
internal_value=0 -0.0138384 -0.00956018 0.000429709 -0.0182246
internal_weight=0 90.0019 87.7449 3167.32 81.8457
internal_count=47087 16133 15678 30954 14073
is_linear=0
shrinkage=0.1


Tree=113
num_leaves=6
num_cat=0
split_feature=3 3 3 3 3
split_gain=1.68729 8.49402 11.0043 10.2849 12.4718
threshold=1247.5000000000002 1117.5000000000002 1111.5000000000002 1200.5000000000002 1218.5000000000002
decision_type=8 10 8 10 10
left_child=1 2 -1 -3 -5
right_child=-2 3 -4 4 -6
leaf_value=3.6538102595522716e-05 -0.0078657226443566465 0.061538921412227054 -0.098318188148080687 -0.052463392326323494 0.038882008961333772
leaf_weight=2884.7171203355056 249.6418762850567 49.868607245767635 11.420529886006987 25.836783833161462 35.463348867615423
leaf_count=28314 17595 446 137 274 321
internal_value=0 0.000689925 -0.000351312 0.0278159 0.000381734
internal_weight=0 3007.31 2896.14 111.169 61.3001
internal_count=47087 29492 28451 1041 595
is_linear=0
shrinkage=0.1


Tree=114
num_leaves=6
num_cat=0
split_feature=1 8 0 1 8
split_gain=1.46399 5.68461 7.05109 4.73444 5.04655
threshold=3.1500000000000008 21.350000000000005 302.25000000000006 3.7500000000000004 25.250000000000004
decision_type=2 10 2 2 10
left_child=-1 2 -2 4 -3
right_child=1 3 -4 -5 -6
leaf_value=-0.00052415012347200121 0.020011304221051476 0.11683901102537707 -0.20337988874048196 -0.0033214621997024723 0.02118474260936995
leaf_weight=3044.6651654499547 2.8465975790786606 5.8758735397641422 2.8054136841178661 110.53226260345582 89.925135141822466
leaf_count=44083 105 66 1107 956 770
internal_value=0 0.00807056 -0.0908711 0.0107809 0.0270517
internal_weight=0 211.985 5.65201 206.333 95.801
internal_count=47087 3004 1212 1792 836
is_linear=0
shrinkage=0.1


Tree=115
num_leaves=6
num_cat=0
split_feature=0 7 7 7 7
split_gain=1.46389 4.38338 6.57689 4.05742 5.87137
threshold=345.65000000000003 279.75000000000006 278.75000000000006 305.65000000000003 306.65000000000003
decision_type=2 10 10 8 10
left_child=3 2 -2 -1 -5
right_child=1 -3 -4 4 -6
leaf_value=-0.00012477031439829346 -0.023198676324819277 0.013309134486832319 -0.25954748307324749 -0.093990011963416276 -0.0011834743876444271
leaf_weight=3050.4150462919806 11.808572911553254 164.26444460465154 1.3077250316073321 11.309792095544255 17.159410812732858
leaf_count=29583 917 1645 14 14754 174
internal_value=0 0.00886706 -0.0467639 -0.000475471 -0.0380523
internal_weight=0 177.381 13.1163 3078.88 28.4692
internal_count=47087 2576 931 44511 14928
is_linear=0
shrinkage=0.1


Tree=116
num_leaves=6
num_cat=0
split_feature=0 2 7 2 7
split_gain=1.40394 3.97636 3.97118 3.74053 3.35793
threshold=300.45000000000005 1.4500000000000002 289.05000000000007 1.1500000000000001 289.55000000000007
decision_type=2 2 8 2 8
left_child=1 2 -1 -4 -5
right_child=-2 -3 3 4 -6
leaf_value=0.011105717856553947 -0.00020880020108785013 0.080945882587143747 -0.031565793494035009 -0.44907137922825408 0.1072851218414228
leaf_weight=33.290262836825605 3212.6417260851067 8.1311345108242659 1.1229174318450521 0.51705560088157643 0.1372686298896042
leaf_count=302 46468 87 130 3 97
internal_value=0 0.0179397 0.00333026 -0.142312 -0.332356
internal_weight=0 43.1986 35.0675 1.77724 0.654324
internal_count=47087 619 532 230 100
is_linear=0
shrinkage=0.1


Tree=117
num_leaves=6
num_cat=0
split_feature=3 1 3 1 1
split_gain=1.67882 4.00908 3.87441 13.9477 8.46368
threshold=2344.5000000000005 1.5500000000000003 1943.5000000000002 1.7500000000000002 1.6500000000000001
decision_type=10 2 8 2 2
left_child=2 -2 -1 4 -4
right_child=1 -3 3 -5 -6
leaf_value=0.00021852384595888463 0.13554739734821583 -0.010638005565213828 -0.072938376543372832 0.072619706389909625 -0.37443020981354158
leaf_weight=3223.4338762735078 3.0649346398549815 4.8361228948178905 15.779230647796798 7.5945462970939834 0.98948032963153387
leaf_count=31419 30 30 10930 4198 480
internal_value=0 0.0460698 -8.17498e-05 -0.03981 -0.0907295
internal_weight=0 7.90106 3247.8 24.3633 16.7687
internal_count=47087 60 47027 15608 11410
is_linear=0
shrinkage=0.1


Tree=118
num_leaves=6
num_cat=0
split_feature=3 7 8 3 8
split_gain=1.60677 9.5205 7.00546 5.26134 5.30295
threshold=22.500000000000004 295.75000000000006 23.150000000000002 29.500000000000004 37.650000000000013
decision_type=10 10 10 10 8
left_child=1 -1 -3 4 -2
right_child=3 2 -4 -5 -6
leaf_value=-0.049717125747039986 0.10585534708893507 -0.089212342770862152 0.10137864473586702 -2.9820221238191269e-06 -0.013766176995464919
leaf_weight=29.280389014237244 9.3462451165905769 2.4814382814415685 8.6552656534768158 3199.529992479539 6.1409029685164578
leaf_count=14391 84 1174 248 31122 68
internal_value=0 -0.019785 0.0589117 0.000278467 0.0584236
internal_weight=0 40.4171 11.1367 3215.02 15.4871
internal_count=47087 15813 1422 31274 152
is_linear=0
shrinkage=0.1


Tree=119
num_leaves=6
num_cat=0
split_feature=3 3 7 1 3
split_gain=1.60768 19.7222 12.4505 21.6794 8.69825
threshold=138.50000000000003 137.50000000000003 293.45000000000005 1.0500000000000003 135.50000000000003
decision_type=10 8 10 2 10
left_child=1 4 -3 -4 -1
right_child=-2 2 3 -5 -6
leaf_value=-0.0060776786584208244 0.00078491265690184089 -0.18981706129202003 -0.37811713937468316 0.095987662631569187 0.054858981355902448
leaf_weight=296.67067100413283 2917.9593054780598 9.3094535719276319 1.2201997489200938 4.6018073885611557 25.432850237821185
leaf_count=2912 28353 13656 438 1469 259
internal_value=0 -0.00650769 -0.118083 -0.00337903 -0.0012662
internal_weight=0 337.235 15.1315 5.82201 322.104
internal_count=47087 18734 15563 1907 3171
is_linear=0
shrinkage=0.1


Tree=120
num_leaves=6
num_cat=0
split_feature=3 3 3 2 7
split_gain=1.70914 12.7637 22.17 20.0739 13.7799
threshold=415.50000000000006 428.50000000000006 424.50000000000006 1.1500000000000001 288.55000000000007
decision_type=8 10 8 2 8
left_child=-1 2 -2 4 -4
right_child=1 -3 3 -5 -6
leaf_value=0.0026229748659858613 -0.0053516613909037501 -0.00014192285827742775 -0.26986403185928892 -0.00092780891426078006 -0.089821880145814714
leaf_weight=1427.595610474591 58.812496556234692 1741.1095871919006 8.5890001676507435 9.7762609748756386 8.4170931697585711
leaf_count=14707 575 16079 976 7023 7727
internal_value=0 -0.00199531 -0.0396955 -0.115112 -0.180753
internal_weight=0 1826.7 85.5949 26.7824 17.0061
internal_count=47087 32380 16301 15726 8703
is_linear=0
shrinkage=0.1


Tree=121
num_leaves=6
num_cat=0
split_feature=3 3 7 3 3
split_gain=1.56755 18.542 21.4357 27.234 15.3401
threshold=234.50000000000003 225.50000000000003 286.15000000000003 232.50000000000003 226.50000000000003
decision_type=10 8 10 10 10
left_child=1 -1 3 -3 -4
right_child=-2 2 4 -5 -6
leaf_value=0.0029138294245177826 0.0012370783344113022 -0.039259917260762001 -0.095085784277997465 -0.2835764376891628 -0.0011815326738336836
leaf_weight=629.93778662238378 2503.2235640497493 11.358451793093311 22.250958595385782 7.6256143826012694 79.73429358219073
leaf_count=6343 24167 12268 3538 137 634
internal_value=0 -0.00397229 -0.0398312 -0.137399 -0.0216694
internal_weight=0 750.907 120.969 18.9841 101.985
internal_count=47087 22920 16577 12405 4172
is_linear=0
shrinkage=0.1


Tree=122
num_leaves=6
num_cat=0
split_feature=3 3 8 3 3
split_gain=1.65071 13.2647 11.5938 13.1465 11.438
threshold=553.50000000000011 616.50000000000011 4.2500000000000009 609.50000000000011 618.50000000000011
decision_type=8 10 8 8 10
left_child=-1 2 -2 -4 -3
right_child=1 4 3 -5 -6
leaf_value=0.0018963001369938011 -0.55579321182159958 0.081916546831179007 -0.0075722728951769487 -0.10234335978788539 -0.0015637203079816723
leaf_weight=1937.0401207720545 0.44592638707763299 16.633322954628966 37.992928560744986 23.81038219049492 1237.7100361158045
leaf_count=19608 80 140 330 15582 11347
internal_value=0 -0.00269277 -0.0477499 -0.0440839 -0.000456721
internal_weight=0 1316.59 62.2492 61.8033 1254.34
internal_count=47087 27479 15992 15912 11487
is_linear=0
shrinkage=0.1


Tree=123
num_leaves=6
num_cat=0
split_feature=7 0 7 5 7
split_gain=1.34619 11.2503 27.9507 7.8572 13.151
threshold=290.75000000000006 305.85000000000008 295.25000000000006 1.0000000180025095e-35 291.95000000000005
decision_type=8 2 10 8 10
left_child=-1 2 3 -2 -5
right_child=1 -3 -4 4 -6
leaf_value=0.0021762701623552917 -0.020205822975553202 7.2216812094226922e-05 -0.40024429886437618 -0.010413531171501844 -0.33243166901318266
leaf_weight=1547.1043445892392 87.504142285214584 1611.1893733186048 2.0540578348086447 2.9945799382576288 2.1998833339184785
leaf_count=15002 1529 27687 390 2325 154
internal_value=0 -0.00189713 -0.0353841 -0.0272992 -0.146791
internal_weight=0 1705.94 94.7527 92.6986 5.19446
internal_count=47087 32085 4398 4008 2479
is_linear=0
shrinkage=0.1


Tree=124
num_leaves=6
num_cat=0
split_feature=3 3 3 3 0
split_gain=1.63023 15.1369 7.37446 7.24029 8.12039
threshold=138.50000000000003 137.50000000000003 135.50000000000003 122.50000000000001 325.25000000000006
decision_type=10 8 10 10 2
left_child=1 2 3 -1 -5
right_child=-2 -3 -4 4 -6
leaf_value=0.0027134639127731207 0.00080036080218251265 -0.10330229250006054 0.051120218804216092 -0.011358952476737731 -0.083571259173491647
leaf_weight=223.1775245654477 2916.5190541979791 15.429293738138197 24.249559773810688 50.717540332463614 22.472221533043921
leaf_count=2194 28353 15563 259 503 215
internal_value=0 -0.00655502 -0.00189917 -0.00623736 -0.0335311
internal_weight=0 336.046 320.617 296.367 73.1898
internal_count=47087 18734 3171 2912 718
is_linear=0
shrinkage=0.1


Tree=125
num_leaves=6
num_cat=0
split_feature=2 7 1 0 1
split_gain=1.49664 6.90655 7.96914 7.56307 6.05208
threshold=1.1500000000000001 268.55000000000007 2.3500000000000001 303.05000000000007 1.8500000000000003
decision_type=2 10 2 2 2
left_child=-1 2 4 -4 -2
right_child=1 -3 3 -5 -6
